2112 150
the 0.8324022 -0.24298026 0.3542667 -0.49253204 -0.8866216 0.61466837 0.16233857 0.72459567 0.17400141 0.042228222 0.44359884 0.020999001 -0.44058296 1.214709 1.0559385 0.81031775 1.7565035 -0.321772 -0.3401108 0.50273526 0.41001737 0.016176771 0.48454416 -0.19164953 0.5085116 0.6457973 1.0253414 0.34767976 1.0622282 0.66602355 -0.5635747 0.99515826 -0.7831168 0.342396 0.547025 -0.33264223 -0.30179787 -0.39271137 0.79490733 -0.22825845 1.7261518 0.112512305 -0.70463866 0.019584704 1.051521 -0.10877894 1.0000116 0.55498976 -0.1649198 -1.085001 0.07443408 -0.04361889 0.7681743 -0.6783305 0.5300064 -1.0015514 0.39423788 0.5465469 0.7893588 -0.26863658 -0.20984706 -0.51107013 -0.5753509 1.156163 -0.18062614 0.8818403 -0.30520505 0.0025455183 -0.36989176 0.37957588 -0.038330473 0.19080043 -1.261716 0.05883454 -0.020350162 0.88588744 -0.31294224 -0.65083104 -0.063060485 1.2783835 -1.4262826 0.14743043 -0.7326694 0.6893208 0.19584414 -0.5960062 0.42186332 0.47775304 0.5511344 -0.75235814 -1.0980915 0.17058787 0.6069534 0.50041056 0.66950387 0.40775797 -0.8717975 -1.4086912 0.9928136 -0.041912846 1.1492279 -0.5945549 0.028368456 -1.1394794 -0.10927678 0.20023078 0.36771974 -1.2036712 0.33120382 -0.52132064 0.0573093 0.25827232 -0.21443743 0.4458776 -0.3909696 0.64655656 -0.22335802 -0.23646052 -0.1177091 -0.4774703 0.26995212 0.6874566 0.19577865 -1.1986115 -0.424785 -0.56282425 0.37193647 -0.53963155 -0.38002205 0.88291055 0.6617532 0.2511965 -0.12576003 -0.71629745 -1.0331434 1.5738152 0.054709647 -0.8068549 0.70638233 0.08966502 1.3649563 -0.28947192 -0.52643 -0.855568 -0.3072431 0.05316929 -0.5862409 0.9899879 -0.07778681 -0.10305925
to 0.7716371 -0.23053467 0.32676372 -0.4580202 -0.826576 0.57683074 0.14915857 0.67775327 0.16648425 0.04379544 0.41313103 0.019307684 -0.4073982 1.1280007 0.98372966 0.7561846 1.6294087 -0.29854488 -0.31086954 0.4671866 0.3810783 0.014725579 0.44810382 -0.17848906 0.47062647 0.60217756 0.95409507 0.32324985 0.988065 0.6181489 -0.5253444 0.9200246 -0.7269929 0.31319648 0.5136392 -0.30479118 -0.28006664 -0.36608812 0.7382801 -0.21541655 1.6004046 0.10635376 -0.65267307 0.01941345 0.981739 -0.1015422 0.9262982 0.5140936 -0.15446578 -1.013489 0.06770773 -0.040854316 0.7098954 -0.628108 0.4918042 -0.9277416 0.36582944 0.5068734 0.7329859 -0.24451873 -0.19192266 -0.47320062 -0.5390588 1.0701932 -0.16902132 0.81939816 -0.28770378 0.0059353723 -0.34686455 0.35697812 -0.032448024 0.17616014 -1.1780127 0.052555364 -0.015723199 0.81880355 -0.28778306 -0.60671425 -0.0580366 1.1872741 -1.3293276 0.13508895 -0.6777918 0.6367884 0.18444349 -0.5543401 0.3940662 0.44261053 0.5120597 -0.7040714 -1.0195885 0.15940069 0.56826943 0.46620765 0.62661445 0.37444535 -0.81254196 -1.310812 0.92419916 -0.03653759 1.0656878 -0.5531284 0.030889167 -1.059942 -0.09996014 0.18684863 0.34233654 -1.1224884 0.30870238 -0.48552606 0.05206427 0.2373621 -0.20157503 0.41507185 -0.36542806 0.6047777 -0.20893106 -0.22380686 -0.10882896 -0.44323453 0.24676947 0.6397703 0.18059467 -1.1199397 -0.38989145 -0.52984697 0.34547627 -0.50105095 -0.34751597 0.822462 0.61388177 0.23061484 -0.11617611 -0.66209656 -0.95773375 1.4657748 0.048647802 -0.74957305 0.6545259 0.08092666 1.2747872 -0.2699075 -0.48654026 -0.7938438 -0.28392768 0.051326647 -0.54944 0.9155563 -0.07165661 -0.096897736
and 0.7697464 -0.2229688 0.32569906 -0.45749843 -0.8176458 0.5660734 0.14725569 0.67148954 0.16445853 0.039066266 0.40904814 0.017179908 -0.40413994 1.1191858 0.9751674 0.7480837 1.6186638 -0.2915431 -0.31362337 0.46492216 0.37435248 0.02030546 0.4423811 -0.17809562 0.46914437 0.59516263 0.94477713 0.31445765 0.97881067 0.6102022 -0.5233125 0.9176647 -0.7178926 0.31446227 0.5076741 -0.30598935 -0.2770803 -0.36364496 0.73578775 -0.20750603 1.5915222 0.10413594 -0.6469337 0.014049192 0.9691294 -0.09648101 0.9172474 0.5091844 -0.15013777 -1.0042459 0.07046506 -0.039779056 0.7092004 -0.6200946 0.4885256 -0.9234492 0.3586027 0.508984 0.7278248 -0.24698746 -0.1923277 -0.47030962 -0.5320827 1.0663189 -0.17153315 0.8153884 -0.28530627 -0.00075844367 -0.33792362 0.35343534 -0.034752876 0.17917472 -1.1646034 0.054795176 -0.014022577 0.81456286 -0.2835499 -0.6023471 -0.061477464 1.1780717 -1.318496 0.13187459 -0.6763592 0.632559 0.18075804 -0.545817 0.38797346 0.43804964 0.5124579 -0.6983634 -1.0091449 0.15531166 0.55979234 0.46097085 0.62089825 0.37098965 -0.8064448 -1.2953917 0.9167142 -0.036101665 1.0554522 -0.5467045 0.028183293 -1.0462818 -0.103716314 0.18561445 0.33869526 -1.1133779 0.3095703 -0.48145568 0.048331097 0.2360298 -0.19682017 0.40845788 -0.36161318 0.5978792 -0.20765959 -0.21777073 -0.11041652 -0.43840438 0.2470479 0.63870007 0.1820786 -1.1097342 -0.38614273 -0.5203052 0.34652424 -0.49681136 -0.34396538 0.8181155 0.6093628 0.23108132 -0.11972903 -0.6600961 -0.9524077 1.4523166 0.045664445 -0.74389565 0.64920807 0.08051881 1.2596247 -0.26842284 -0.48413047 -0.78403807 -0.28243366 0.05086891 -0.54031724 0.9118687 -0.068201244 -0.09700992
of 0.75189453 -0.21698453 0.32009292 -0.4476253 -0.79892707 0.5568553 0.14453918 0.65344346 0.15966044 0.0431158 0.3975372 0.018047525 -0.39385244 1.0875922 0.9506822 0.727833 1.578728 -0.2876324 -0.30761355 0.45183903 0.36961272 0.016224721 0.43259192 -0.17720096 0.46050957 0.5833122 0.9240154 0.31020942 0.9593291 0.59793377 -0.50891894 0.8920582 -0.7019125 0.3029037 0.49308625 -0.29924548 -0.267551 -0.3518145 0.712948 -0.20588718 1.5498383 0.104410924 -0.6357442 0.015631223 0.94866955 -0.09677893 0.8966579 0.49416316 -0.14862032 -0.9760473 0.06999911 -0.035444785 0.689933 -0.6069644 0.47938606 -0.9004868 0.3551881 0.4914997 0.70688975 -0.23596066 -0.18530905 -0.46184635 -0.5169318 1.0344849 -0.1640636 0.7964406 -0.27452677 0.0019640145 -0.3321874 0.34102145 -0.034787364 0.17567228 -1.140792 0.050770666 -0.015227306 0.7979463 -0.28196642 -0.58450127 -0.05818574 1.1510543 -1.2866924 0.12736507 -0.6566384 0.62047356 0.17586179 -0.5341375 0.3778763 0.43102422 0.5012006 -0.6812414 -0.9884415 0.15596913 0.5490398 0.4526124 0.6014295 0.36213717 -0.7863244 -1.2689974 0.8944433 -0.03886374 1.0303783 -0.5312205 0.024228279 -1.0247879 -0.100661345 0.1841249 0.3327689 -1.0849981 0.30087847 -0.46359652 0.049032856 0.23259516 -0.19102645 0.40157455 -0.35380635 0.5810409 -0.1976972 -0.21090963 -0.10600325 -0.4281681 0.24315825 0.62111783 0.17736222 -1.0831071 -0.38136756 -0.5067177 0.33876407 -0.4838603 -0.33871198 0.7939854 0.59319794 0.22527832 -0.11628187 -0.6446933 -0.9266133 1.4185278 0.043680996 -0.7282884 0.63208324 0.07919643 1.2323958 -0.26448625 -0.47025797 -0.76350623 -0.27812535 0.048402272 -0.52757 0.88903207 -0.06496576 -0.091170594
you 0.58518034 -0.1704768 0.25137785 -0.34613928 -0.6231442 0.4374679 0.1130485 0.51407367 0.12397773 0.034177434 0.3107767 0.011351703 -0.30917418 0.848467 0.7412845 0.5728783 1.2351726 -0.22252952 -0.23579544 0.35220286 0.28171432 0.01543481 0.3422765 -0.1374433 0.35857293 0.44987133 0.7244083 0.24370669 0.74560905 0.46486816 -0.39635396 0.7005009 -0.54387265 0.23671395 0.38274813 -0.22799663 -0.21307234 -0.2756399 0.5633515 -0.15924165 1.2097731 0.07970174 -0.49650666 0.011521602 0.7424544 -0.07765091 0.6980764 0.3858079 -0.115485586 -0.7624219 0.056073625 -0.03049391 0.53618264 -0.4780721 0.3745205 -0.6984638 0.2774329 0.3837235 0.5486744 -0.18387106 -0.1494431 -0.36307645 -0.4052714 0.81320804 -0.12706251 0.6216812 -0.21253854 0.0029118 -0.2622365 0.2662952 -0.023719385 0.13436712 -0.8940959 0.037831664 -0.009807689 0.6228081 -0.22019131 -0.45701313 -0.04717635 0.89947987 -1.0019485 0.099333465 -0.5107785 0.4852056 0.1402242 -0.42210758 0.29961982 0.33930984 0.3883387 -0.53342485 -0.7744659 0.11599747 0.42818084 0.35190967 0.4707865 0.28750092 -0.6191486 -0.9932406 0.6951394 -0.030232904 0.80969065 -0.4115942 0.02363523 -0.797285 -0.07567478 0.13971524 0.25628924 -0.8530195 0.23421903 -0.3665216 0.03660377 0.1757885 -0.15639126 0.3121869 -0.27925834 0.45299858 -0.160452 -0.17219354 -0.08314903 -0.33912826 0.18597524 0.4848841 0.14157909 -0.8494392 -0.29602903 -0.39518395 0.26521903 -0.37719092 -0.27003413 0.61998457 0.46775696 0.17873737 -0.087986685 -0.5027265 -0.7249679 1.1043575 0.03240607 -0.5742303 0.4989791 0.066303656 0.96386033 -0.20849949 -0.37107888 -0.60300165 -0.21666494 0.04195608 -0.41635853 0.69198614 -0.05014546 -0.072140194
my 0.74311453 -0.21940783 0.31730148 -0.43946877 -0.7840964 0.5490355 0.14550677 0.64710236 0.15968524 0.03750433 0.39455462 0.01794075 -0.38920105 1.0754627 0.9391934 0.72159225 1.563562 -0.28817958 -0.30123058 0.45388442 0.35914722 0.01495893 0.42954123 -0.17130515 0.45574513 0.5737453 0.9145574 0.31045803 0.94463015 0.5896148 -0.5064772 0.8860756 -0.6909404 0.30237085 0.48879045 -0.29226416 -0.26779142 -0.34623754 0.7065728 -0.20149562 1.5369949 0.099758744 -0.62886363 0.017369226 0.9391827 -0.09656931 0.8907047 0.49408925 -0.14453256 -0.9691789 0.06758606 -0.04104829 0.680166 -0.60432035 0.4751415 -0.8926869 0.34808344 0.48498613 0.69939625 -0.23365694 -0.18660377 -0.45297444 -0.51511526 1.0297103 -0.16083062 0.7857526 -0.27362326 -0.0009016615 -0.3310229 0.34017748 -0.037007965 0.16803284 -1.1252447 0.05568302 -0.013333511 0.7866593 -0.27407384 -0.57729286 -0.053672444 1.1373549 -1.2699913 0.13021965 -0.6524941 0.61201906 0.17604928 -0.52769876 0.3736875 0.4249843 0.49051744 -0.66899484 -0.979934 0.15114936 0.54255295 0.44946295 0.59424484 0.36309555 -0.7767196 -1.2548194 0.88145566 -0.035870805 1.0174929 -0.52578294 0.029215168 -1.0127325 -0.09792498 0.17794114 0.32602245 -1.0717422 0.29773408 -0.4589186 0.048430957 0.22566387 -0.19524021 0.39566788 -0.35207152 0.57816195 -0.2001106 -0.20840177 -0.10689775 -0.42195204 0.238847 0.61785954 0.17800094 -1.0692092 -0.3790012 -0.50706154 0.33335194 -0.4795486 -0.33386168 0.78930795 0.5874245 0.22401457 -0.11187579 -0.6336802 -0.9192205 1.4034232 0.047265965 -0.7191582 0.6255756 0.08312692 1.2150929 -0.2569731 -0.46427843 -0.75818896 -0.27599245 0.051600963 -0.52509415 0.8778664 -0.07013599 -0.08883642
is 0.6807296 -0.20022932 0.29096186 -0.4061411 -0.7289723 0.5027713 0.13104425 0.5938572 0.14501812 0.03658183 0.36498758 0.012105612 -0.36109188 0.9970276 0.8706685 0.6641383 1.4431949 -0.25931343 -0.2755833 0.41807613 0.3373462 0.014607261 0.39626035 -0.1610013 0.41839856 0.5316109 0.84196514 0.2859511 0.8767725 0.5428937 -0.46425766 0.8148858 -0.6415534 0.27827567 0.44748068 -0.27299708 -0.24813071 -0.32494935 0.6549327 -0.19087751 1.4171621 0.096296154 -0.582181 0.014447615 0.8680458 -0.09016246 0.8195026 0.45561346 -0.13428809 -0.89322877 0.064947605 -0.033350457 0.6271179 -0.5577291 0.4367166 -0.8237868 0.32415763 0.44987306 0.64339197 -0.21723497 -0.17227094 -0.42147717 -0.47629493 0.9435126 -0.15049636 0.7242048 -0.25262812 0.001908356 -0.30496484 0.30917734 -0.03464234 0.15694806 -1.0398769 0.046237763 -0.012649795 0.7260739 -0.25302014 -0.5355558 -0.05136786 1.0523717 -1.1769459 0.11548174 -0.5991735 0.56411016 0.16228971 -0.49214894 0.3436758 0.38989824 0.4529193 -0.6174056 -0.8990143 0.13937984 0.50059396 0.4153 0.5506763 0.33005393 -0.7211652 -1.1591635 0.81120336 -0.033615436 0.94568014 -0.48325494 0.021875829 -0.9332493 -0.08976018 0.16637923 0.29897344 -0.9906814 0.27242094 -0.42660567 0.04241488 0.2076259 -0.17757142 0.36340213 -0.32458135 0.52990925 -0.17978638 -0.19675002 -0.092445545 -0.3930821 0.22164743 0.5661451 0.15908857 -0.9855503 -0.3444601 -0.4666553 0.30940163 -0.44093958 -0.3110187 0.73131245 0.54112667 0.20464289 -0.10440749 -0.5840098 -0.85132354 1.2940148 0.039631967 -0.66832465 0.577438 0.075621106 1.1269556 -0.24339154 -0.43054697 -0.6981343 -0.2558401 0.0455481 -0.48484668 0.81140774 -0.06371156 -0.083330266
it 0.5967003 -0.17358643 0.24990351 -0.34967947 -0.63073415 0.4386787 0.113370225 0.52048737 0.12705778 0.03400811 0.31407756 0.010317699 -0.3126317 0.8653648 0.7535627 0.5802345 1.2514316 -0.23080927 -0.23912564 0.36119524 0.28633142 0.015013774 0.3416018 -0.13897574 0.364941 0.4586646 0.73008907 0.24706031 0.7613496 0.46947792 -0.40696293 0.70914 -0.55120224 0.24551776 0.39284405 -0.23306713 -0.2138168 -0.28010315 0.5671315 -0.1661006 1.2300683 0.08440214 -0.5047122 0.0107735265 0.7533093 -0.07700424 0.71358657 0.3939128 -0.119148485 -0.7770375 0.057068978 -0.031951837 0.54314184 -0.48400182 0.37945798 -0.7140088 0.27591982 0.3933559 0.5625827 -0.18881936 -0.15082972 -0.36662513 -0.41248122 0.8220459 -0.12673254 0.6256408 -0.2186078 0.0020087892 -0.2649614 0.27204958 -0.028609011 0.13439141 -0.90262866 0.04532695 -0.012691672 0.62853044 -0.2222423 -0.46550664 -0.045633055 0.90711373 -1.0156544 0.10441543 -0.5224526 0.48991218 0.1430102 -0.42400196 0.30093208 0.34197852 0.39446995 -0.5408689 -0.7816111 0.12018653 0.43150544 0.3587945 0.47587788 0.29187763 -0.62443703 -1.0043111 0.7073865 -0.031199148 0.8205687 -0.42246947 0.023306226 -0.80959255 -0.07735316 0.14551562 0.26050997 -0.8615311 0.23776993 -0.36836356 0.038432408 0.18307427 -0.15226002 0.31676602 -0.2836538 0.4633653 -0.15656063 -0.1671587 -0.08106902 -0.34140918 0.19426818 0.49256223 0.1412439 -0.85633415 -0.30226624 -0.40151015 0.2686936 -0.38468978 -0.26853842 0.6344346 0.47493726 0.17862114 -0.08885565 -0.51018447 -0.7342244 1.1212641 0.03963559 -0.5778741 0.5044026 0.061574977 0.9749459 -0.21152657 -0.37667194 -0.6051347 -0.21994175 0.037606377 -0.41933522 0.7036005 -0.05709959 -0.07079205
in 0.7235678 -0.21552134 0.30769017 -0.43225217 -0.7759393 0.5383888 0.14152972 0.63195103 0.15753634 0.037069082 0.38833326 0.015744438 -0.38336945 1.0542226 0.9218103 0.70643413 1.5294678 -0.27699474 -0.29303148 0.44173756 0.35223344 0.020391177 0.4170991 -0.16626978 0.44430333 0.5595784 0.8946233 0.29879448 0.92954654 0.5797927 -0.49851367 0.8685611 -0.67636424 0.3002279 0.47851008 -0.29156545 -0.2625127 -0.344664 0.690494 -0.20044985 1.505903 0.10037758 -0.6159732 0.0153605435 0.922027 -0.09357724 0.8698451 0.48318654 -0.14351742 -0.9508547 0.064445324 -0.037648123 0.6709567 -0.5871611 0.46450153 -0.8696361 0.34167257 0.47667393 0.6839849 -0.2294883 -0.18268998 -0.44497997 -0.5061002 1.0082743 -0.16221684 0.7696198 -0.2669634 0.004543442 -0.3205568 0.33397523 -0.03593353 0.17012736 -1.1036662 0.05210536 -0.01623777 0.7747759 -0.2696412 -0.5672313 -0.0575335 1.116762 -1.2493324 0.12605515 -0.6399707 0.59608155 0.17525285 -0.5196718 0.3637291 0.4147768 0.48371747 -0.65654165 -0.9591461 0.1532458 0.5322628 0.44121873 0.58303744 0.35476172 -0.7650969 -1.2322779 0.86668503 -0.036401853 1.0023104 -0.51866204 0.029367104 -0.990149 -0.0951179 0.17328987 0.31740972 -1.0515983 0.29399532 -0.45301795 0.045788217 0.22413282 -0.18624878 0.38513336 -0.3466767 0.56634897 -0.19522594 -0.2100457 -0.099276796 -0.41929495 0.23431838 0.6057237 0.16776897 -1.0500762 -0.36625347 -0.4932598 0.3277808 -0.47053787 -0.3301798 0.7771083 0.5785041 0.21888785 -0.11276633 -0.6213072 -0.90030617 1.373933 0.04404037 -0.70281744 0.6123011 0.07481509 1.1928021 -0.25858057 -0.45641792 -0.74298954 -0.27156428 0.046831924 -0.51042426 0.86208844 -0.06599973 -0.089048944
for 0.6305331 -0.18491824 0.26992375 -0.3790506 -0.6714748 0.47050613 0.12155742 0.5542377 0.1338927 0.035784535 0.33538756 0.010673465 -0.32886305 0.91936606 0.8045014 0.6138668 1.3332993 -0.238828 -0.25690964 0.38498595 0.3069276 0.016648434 0.3669801 -0.14624925 0.38965008 0.48762208 0.77773935 0.25917655 0.81005555 0.50390536 -0.42797083 0.7526883 -0.5873248 0.25905558 0.4156704 -0.24947128 -0.22956327 -0.29541957 0.6013596 -0.17172025 1.305951 0.083878346 -0.536231 0.010813305 0.8014038 -0.08461251 0.7564698 0.41785273 -0.1235634 -0.8286677 0.059836008 -0.03287944 0.57956946 -0.51179713 0.40716583 -0.761681 0.2940576 0.41452107 0.5976732 -0.2018835 -0.16173284 -0.38799417 -0.44103745 0.8754307 -0.13616599 0.671773 -0.23289986 0.0045663193 -0.28062308 0.288364 -0.02910787 0.14689672 -0.96249706 0.04217588 -0.010626299 0.667207 -0.23511136 -0.49508774 -0.045865934 0.9698606 -1.0882674 0.11075813 -0.552936 0.51696056 0.15035552 -0.45061994 0.31936875 0.36370668 0.4223215 -0.5723391 -0.8351211 0.13300231 0.46184295 0.38403755 0.5065372 0.30420297 -0.66653776 -1.0656072 0.75521094 -0.02848649 0.8703965 -0.4496247 0.024923474 -0.8591783 -0.0816658 0.15106647 0.27760315 -0.9147662 0.25110063 -0.39072734 0.03877943 0.19263786 -0.16353804 0.34055272 -0.29770157 0.49175873 -0.16857065 -0.18288656 -0.08976536 -0.3638695 0.20096102 0.52316344 0.14869064 -0.909393 -0.31998572 -0.43107253 0.28242812 -0.4100178 -0.28487846 0.67572516 0.5045216 0.18653652 -0.09894382 -0.5445407 -0.7854784 1.197269 0.036205497 -0.6133566 0.53368574 0.06455934 1.0374523 -0.22073606 -0.39738524 -0.6432394 -0.2363339 0.041746825 -0.44922006 0.74664176 -0.061087348 -0.08060977
that 0.58150256 -0.16847137 0.24435219 -0.34340608 -0.6123822 0.42943987 0.109402016 0.50424904 0.12604506 0.03114322 0.3075075 0.014146595 -0.30100065 0.84234303 0.7364947 0.5656988 1.2167737 -0.22384016 -0.23257513 0.35147765 0.28281924 0.015005733 0.3362656 -0.13656038 0.35662094 0.4498942 0.71306515 0.24358661 0.73847735 0.46328616 -0.39433774 0.69186205 -0.53840274 0.23841545 0.382948 -0.22660096 -0.2061973 -0.27460292 0.552674 -0.1567622 1.1970135 0.08004896 -0.49035797 0.01217908 0.7316164 -0.07450287 0.6956018 0.38627028 -0.11397278 -0.75772816 0.051027104 -0.029881543 0.531479 -0.4709725 0.37168682 -0.69706976 0.27414352 0.37953612 0.54670453 -0.18802068 -0.142789 -0.3534545 -0.4038721 0.80095243 -0.12638654 0.61178625 -0.21125296 0.0053668213 -0.25511315 0.26486948 -0.023540528 0.13512409 -0.87705994 0.043891393 -0.009279706 0.6164332 -0.21762878 -0.45153868 -0.046078745 0.88507026 -0.9924686 0.10008132 -0.5103296 0.47607553 0.13678935 -0.4143939 0.2900106 0.33259562 0.38325098 -0.52541995 -0.7663736 0.1215862 0.4207816 0.3526665 0.46788108 0.28029498 -0.6104891 -0.9789731 0.6890032 -0.02809136 0.80002445 -0.4080119 0.019245083 -0.792942 -0.07610897 0.13753368 0.25697443 -0.8353633 0.23385264 -0.35774398 0.03862664 0.17613474 -0.1491087 0.312769 -0.2732038 0.44931763 -0.15623689 -0.16135865 -0.080015935 -0.32850814 0.18547405 0.4790407 0.13332441 -0.8382151 -0.2917471 -0.39500338 0.25693876 -0.3724512 -0.26324227 0.61424255 0.45641968 0.17699057 -0.08773952 -0.4994912 -0.71722883 1.0942541 0.035739746 -0.5637191 0.49147224 0.06089627 0.9526535 -0.20630945 -0.36014327 -0.5889429 -0.21487561 0.04072915 -0.40607578 0.68582803 -0.05378191 -0.074542716
me 0.5434843 -0.16417897 0.23231147 -0.3201402 -0.57566714 0.4051335 0.10369628 0.47595647 0.115454204 0.031912263 0.2881351 0.013650713 -0.28292534 0.79137045 0.69244695 0.5266859 1.1437051 -0.20717816 -0.2234534 0.33273488 0.26418963 0.013109458 0.31119674 -0.12435926 0.33592272 0.42142186 0.668471 0.22655138 0.6940471 0.4355442 -0.37361085 0.65120006 -0.51028365 0.22195879 0.35667172 -0.21652596 -0.19596341 -0.2529664 0.51926345 -0.14515612 1.1280534 0.07293618 -0.4633204 0.009378877 0.6877995 -0.07306166 0.6474927 0.36290213 -0.10720169 -0.71147597 0.051897828 -0.027851798 0.49881813 -0.44109952 0.35038793 -0.6497051 0.2543008 0.36015573 0.51257366 -0.17754883 -0.1365751 -0.33149123 -0.37885907 0.7554426 -0.11982629 0.5724147 -0.19683422 0.004260883 -0.24312247 0.24901909 -0.023559619 0.12341049 -0.82784146 0.03598798 -0.00956776 0.5733293 -0.20417723 -0.42400217 -0.040761817 0.83075494 -0.9297584 0.0901899 -0.4766965 0.44523376 0.13112052 -0.3912377 0.27227262 0.3089856 0.36428198 -0.49382684 -0.71535486 0.10840517 0.3940802 0.33071354 0.4408625 0.26368347 -0.57452106 -0.92000353 0.6463472 -0.027686499 0.74921143 -0.38675696 0.022529574 -0.741509 -0.06829482 0.13341355 0.23987673 -0.7875275 0.2201141 -0.34147578 0.03275602 0.16737641 -0.14434418 0.2900945 -0.25617108 0.42639557 -0.14673212 -0.15892948 -0.0782004 -0.3122578 0.17383736 0.44943044 0.13143592 -0.78393114 -0.2779966 -0.37253878 0.24493478 -0.3481551 -0.24779366 0.57778907 0.4349407 0.16616902 -0.08698157 -0.46763152 -0.67622364 1.0244428 0.03314123 -0.52845985 0.459944 0.05531585 0.89314294 -0.19506258 -0.34334567 -0.5551634 -0.19931148 0.03717604 -0.38097656 0.6395993 -0.050853517 -0.0658926
i 0.5388161 -0.15995087 0.23110074 -0.31979865 -0.5744688 0.40056118 0.105868116 0.4678787 0.11548553 0.031185843 0.28168282 0.010011769 -0.280011 0.7846421 0.6821823 0.5230595 1.1346223 -0.20671158 -0.21775657 0.32556704 0.2599368 0.010200461 0.30814618 -0.12559584 0.33127657 0.41766453 0.6647256 0.2253328 0.6902343 0.4288823 -0.37018389 0.63949317 -0.5065679 0.21726403 0.35196254 -0.2122096 -0.19005735 -0.25700188 0.51518565 -0.14509256 1.1134595 0.07154146 -0.45657754 0.014892252 0.68167555 -0.07079984 0.6422643 0.35578728 -0.104008645 -0.703304 0.051411066 -0.027567536 0.49314982 -0.4399719 0.34565118 -0.64474607 0.2521755 0.35361743 0.5086178 -0.17029597 -0.1384522 -0.33088535 -0.37208548 0.7482999 -0.11643411 0.57127225 -0.2011659 -0.0015151293 -0.24071194 0.24794509 -0.026582025 0.12553707 -0.81863457 0.039464217 -0.013742029 0.57101643 -0.199825 -0.42304426 -0.04026849 0.8222486 -0.9249993 0.09585744 -0.47220045 0.44517174 0.1262825 -0.38258645 0.26960775 0.31085172 0.35867217 -0.4903072 -0.71277356 0.11435739 0.39145434 0.32497352 0.43010432 0.26438484 -0.562146 -0.9135106 0.63829416 -0.025741374 0.7443459 -0.38365546 0.022265047 -0.73777336 -0.073797196 0.12805872 0.24012946 -0.7814002 0.21588838 -0.33653536 0.036174137 0.16144596 -0.14153983 0.28521532 -0.25658962 0.4211867 -0.14697316 -0.15374509 -0.07829663 -0.3089399 0.17548208 0.44758257 0.12764968 -0.7773769 -0.2730302 -0.3659148 0.24314031 -0.34654683 -0.24284264 0.57499844 0.42814296 0.16219422 -0.085966006 -0.46295968 -0.66697097 1.0177 0.032246206 -0.52576447 0.45436895 0.054141838 0.8845082 -0.18666568 -0.3389903 -0.54891783 -0.19912112 0.036675867 -0.37813392 0.63396907 -0.0520715 -0.070838265
be 0.5534359 -0.16578804 0.23678517 -0.32940847 -0.58748996 0.4077169 0.10827391 0.4805685 0.11633862 0.03335515 0.2961109 0.015788386 -0.29245335 0.80495584 0.7026152 0.53685206 1.1643499 -0.21053234 -0.22447899 0.3363996 0.26895484 0.012630797 0.31895798 -0.1253043 0.3401272 0.42702708 0.6792479 0.22634181 0.7090948 0.44224116 -0.37777105 0.65500367 -0.512744 0.22160874 0.3598616 -0.21938725 -0.202693 -0.25729996 0.5291455 -0.15169165 1.145114 0.07648039 -0.46786767 0.010977571 0.69604886 -0.07463094 0.66127396 0.36583415 -0.10688059 -0.7214264 0.047450125 -0.028773978 0.5088893 -0.44831988 0.35580415 -0.6604992 0.26255056 0.36197254 0.52227515 -0.17736939 -0.13651863 -0.33926037 -0.38108435 0.7663939 -0.12040589 0.58650976 -0.20140643 0.0027118928 -0.2422562 0.24867381 -0.027549794 0.1290935 -0.8378858 0.042610645 -0.012045117 0.58645225 -0.20839338 -0.43020338 -0.045082025 0.84711915 -0.9502283 0.09447687 -0.48603562 0.4511623 0.12842278 -0.3945723 0.28192502 0.3158962 0.36909953 -0.5032459 -0.7286561 0.11651086 0.4039245 0.3330504 0.44465685 0.2691967 -0.5799299 -0.9334144 0.6572791 -0.029272633 0.76396173 -0.3917556 0.023344913 -0.754782 -0.07498313 0.13543762 0.24112114 -0.7994633 0.2221206 -0.3421454 0.038233716 0.1705769 -0.14321892 0.29652348 -0.26360714 0.43350437 -0.14762378 -0.16085097 -0.07829213 -0.3179167 0.1794233 0.45937678 0.13034788 -0.79499656 -0.27570477 -0.37430513 0.24795276 -0.35627133 -0.25050372 0.5913957 0.43525362 0.1684748 -0.08800762 -0.47138983 -0.68734646 1.0452809 0.031452306 -0.53644735 0.46508342 0.05526858 0.90592915 -0.1962187 -0.3504173 -0.563394 -0.20071892 0.03634804 -0.39302158 0.6570387 -0.047436457 -0.06958779
so 0.5647994 -0.16337019 0.23799838 -0.3382425 -0.6022971 0.4176148 0.1111062 0.4936902 0.119545504 0.028383372 0.2964942 0.013611854 -0.29585892 0.81862205 0.71733916 0.54985493 1.1873538 -0.21766691 -0.22673747 0.34052485 0.27789214 0.011302827 0.32597393 -0.13377248 0.34346446 0.43604025 0.69549894 0.23601879 0.71893096 0.44925177 -0.3839144 0.67204916 -0.52868277 0.23100732 0.37258902 -0.22208881 -0.20095368 -0.26517522 0.5353332 -0.15437463 1.1679882 0.07455954 -0.47492966 0.01172031 0.7160466 -0.07329282 0.673132 0.37189394 -0.112835266 -0.7357905 0.05223948 -0.033546478 0.5204655 -0.4607255 0.36235866 -0.6785083 0.26453638 0.37166667 0.53302383 -0.18337852 -0.13937795 -0.34982833 -0.39443418 0.7805099 -0.12607913 0.5944156 -0.20336029 0.004851839 -0.24909496 0.25980473 -0.023767984 0.13086978 -0.8617874 0.0404129 -0.008538298 0.6020005 -0.21157753 -0.4431146 -0.04461943 0.8668609 -0.96615434 0.09705353 -0.4956511 0.46241856 0.13563596 -0.4045148 0.2849958 0.31968203 0.37266225 -0.512893 -0.7404784 0.113941245 0.41189292 0.33790705 0.4545994 0.27259392 -0.5921656 -0.9539817 0.66767967 -0.029124152 0.77833164 -0.40170354 0.021390079 -0.77183944 -0.07654729 0.13838641 0.24845223 -0.81507283 0.22737242 -0.34804228 0.035024688 0.17187625 -0.1439249 0.2994054 -0.2658457 0.44227263 -0.15229723 -0.1573601 -0.07665202 -0.32529587 0.18320785 0.47011176 0.13418105 -0.81391025 -0.2882685 -0.3849285 0.2544769 -0.36220288 -0.25401524 0.6007925 0.44453734 0.16812718 -0.08718658 -0.48644745 -0.7011075 1.0675828 0.037293617 -0.5512593 0.4776008 0.06009131 0.92821115 -0.1966548 -0.35545996 -0.5785231 -0.20638087 0.035565898 -0.39963078 0.6685319 -0.05086471 -0.06833043
have 0.4896561 -0.14739539 0.21015579 -0.29282817 -0.51934725 0.36072236 0.09125554 0.42917138 0.105350085 0.029282888 0.25774902 0.009042809 -0.25311226 0.7107789 0.6196368 0.47286305 1.028062 -0.1875037 -0.19770873 0.29704157 0.24081466 0.008702433 0.28587773 -0.1158094 0.29926434 0.3774452 0.60140085 0.20031124 0.6274738 0.38587448 -0.3324761 0.58404106 -0.45865965 0.20210841 0.32124248 -0.19616145 -0.17649706 -0.22903317 0.46892014 -0.13223505 1.010006 0.06704658 -0.41565502 0.011034914 0.6159579 -0.063705795 0.58323926 0.32114372 -0.093889736 -0.64118195 0.04714715 -0.022121545 0.45226145 -0.39781606 0.31507972 -0.5862781 0.22671115 0.32255554 0.46399155 -0.15301427 -0.12130246 -0.3023449 -0.3366544 0.674494 -0.105395414 0.51946867 -0.17738114 0.003829482 -0.21673532 0.22170022 -0.02512744 0.111446135 -0.7409485 0.03415737 -0.010831347 0.5167022 -0.18511352 -0.37888432 -0.03825016 0.75157964 -0.84195274 0.08269683 -0.42714748 0.40312865 0.11621707 -0.34820014 0.24541196 0.28014496 0.32233912 -0.44378534 -0.6418231 0.101587355 0.3599046 0.29488546 0.39641032 0.23694424 -0.51169384 -0.8284223 0.5777322 -0.025080739 0.6706127 -0.34800428 0.014814294 -0.6659462 -0.06094909 0.11674114 0.21354552 -0.704413 0.19654764 -0.30281395 0.029811297 0.1480759 -0.12724763 0.26060924 -0.22878778 0.38193396 -0.13222682 -0.13919753 -0.06808297 -0.27663153 0.15968283 0.4025676 0.11382453 -0.7044912 -0.24439943 -0.33198047 0.21927568 -0.31732494 -0.22464754 0.5188988 0.39104497 0.14923647 -0.07611261 -0.42201772 -0.6070068 0.92576647 0.027639132 -0.47622818 0.40964216 0.05111514 0.80426794 -0.17510027 -0.30663356 -0.50025475 -0.1801492 0.029345633 -0.34669545 0.5786946 -0.042692065 -0.061544757
on 0.6425367 -0.18860568 0.27087635 -0.38512823 -0.6876715 0.4775437 0.12431908 0.5666465 0.13645442 0.03755889 0.34295136 0.017055444 -0.3363939 0.93712103 0.8168807 0.629211 1.3628696 -0.24390823 -0.26213473 0.39440197 0.31284067 0.018617956 0.37304276 -0.15129052 0.39749244 0.5021773 0.7915989 0.26933706 0.82518834 0.5171722 -0.44232392 0.7708414 -0.60415286 0.2670993 0.42629832 -0.25765234 -0.23464692 -0.30251476 0.619251 -0.17646672 1.3377922 0.085686505 -0.5435018 0.014348984 0.81684643 -0.081591554 0.7713703 0.42548466 -0.12769985 -0.8456034 0.059697915 -0.032909356 0.5946552 -0.52217776 0.4099748 -0.77787936 0.30124748 0.42688516 0.61178154 -0.20412394 -0.1604131 -0.39387763 -0.44897556 0.8912585 -0.14214657 0.68667316 -0.23617023 0.004513505 -0.28591615 0.29865578 -0.028121805 0.14574745 -0.9820335 0.046628803 -0.009530489 0.6879795 -0.23749878 -0.5069519 -0.047813594 0.99007756 -1.1097755 0.1085619 -0.56383324 0.529811 0.1570911 -0.4622504 0.32869858 0.3683765 0.43203926 -0.585533 -0.8543607 0.12968165 0.47039214 0.3886896 0.5202232 0.31557265 -0.68114513 -1.0906771 0.767581 -0.029609857 0.8871815 -0.45771733 0.021657933 -0.883043 -0.08809799 0.15257719 0.28423142 -0.9388075 0.26060632 -0.39955127 0.04330793 0.20122945 -0.16912237 0.34783173 -0.30370903 0.5039263 -0.1732689 -0.18594337 -0.089871585 -0.36689764 0.20892723 0.53833 0.15482388 -0.93242306 -0.33030468 -0.4378252 0.28700134 -0.41316977 -0.28848073 0.6839249 0.51601577 0.19378956 -0.09519865 -0.55481243 -0.80298066 1.2193373 0.0429019 -0.6284457 0.5443755 0.06730929 1.062578 -0.22913645 -0.4057633 -0.6587193 -0.23987566 0.044108987 -0.45545113 0.76307 -0.058309153 -0.07772759
with 0.6485761 -0.19355316 0.27430913 -0.38959834 -0.6892248 0.4807795 0.122480154 0.5672616 0.14023934 0.037741065 0.34602988 0.015178382 -0.340216 0.94650906 0.82509315 0.62988853 1.3692529 -0.2529614 -0.26414806 0.3983914 0.32028717 0.012290785 0.3786084 -0.15496933 0.40121675 0.50615525 0.80069315 0.27311534 0.8326149 0.5212631 -0.44183737 0.77506715 -0.61149955 0.26841807 0.43229854 -0.2615964 -0.23580347 -0.3049012 0.62048966 -0.17895226 1.3500278 0.08936776 -0.55509007 0.01059684 0.82664764 -0.08501185 0.78100324 0.42939875 -0.13328145 -0.8533535 0.058345273 -0.030788226 0.59561044 -0.5280581 0.41897038 -0.7799167 0.30261913 0.42822388 0.6152044 -0.20626158 -0.16399132 -0.40057123 -0.45407972 0.90241575 -0.14150186 0.6895545 -0.23953567 0.0030617747 -0.2878498 0.29857486 -0.028370159 0.15303639 -0.99233913 0.047138225 -0.01587247 0.6911768 -0.2457538 -0.50816226 -0.051351693 1.0004956 -1.1169511 0.11060699 -0.57051724 0.5368135 0.15306614 -0.46717492 0.33091062 0.37023258 0.43150935 -0.5874879 -0.861938 0.13659984 0.4779231 0.3934221 0.52630204 0.3161406 -0.6820908 -1.1004549 0.7723193 -0.03044248 0.89408976 -0.46617466 0.023611048 -0.8906986 -0.08360471 0.15626481 0.28592306 -0.9468265 0.26251328 -0.40831313 0.043122668 0.20006269 -0.16663705 0.35085395 -0.30643103 0.5042687 -0.17195521 -0.18291312 -0.08814843 -0.37193152 0.21049646 0.5434662 0.1552422 -0.9433911 -0.33265516 -0.44406465 0.29098564 -0.41974378 -0.29379833 0.69457877 0.51477224 0.19303781 -0.10150425 -0.5615863 -0.80924916 1.2312274 0.040895537 -0.6324883 0.54818773 0.07242505 1.0721571 -0.22977161 -0.40633506 -0.6639398 -0.23970443 0.04714881 -0.4630399 0.77023023 -0.060359426 -0.0775093
all 0.5377948 -0.15641896 0.22711498 -0.31763947 -0.57216954 0.39603293 0.10322602 0.46552318 0.11592482 0.031522725 0.28364685 0.014295475 -0.2790981 0.78123534 0.68011355 0.5181594 1.1283256 -0.20806468 -0.22082664 0.32322484 0.26280576 0.009157169 0.31268492 -0.126554 0.3267628 0.4149539 0.6625857 0.2223298 0.68579555 0.4282375 -0.36267245 0.6389812 -0.4977763 0.21724913 0.35325354 -0.2134567 -0.19295272 -0.2518725 0.5126552 -0.14995453 1.1055014 0.07370732 -0.45482638 0.00997276 0.67331654 -0.067182116 0.6410467 0.35469916 -0.10342724 -0.69677687 0.051864043 -0.02790048 0.49522614 -0.434584 0.34602723 -0.6446241 0.25016078 0.3504815 0.5018399 -0.16978453 -0.1365384 -0.33214128 -0.37408677 0.7446552 -0.114524424 0.56426686 -0.19994347 0.0027139685 -0.24008615 0.24092488 -0.02333847 0.12665233 -0.81341964 0.035625923 -0.0073859603 0.5708474 -0.19972456 -0.41787967 -0.037684556 0.81862146 -0.9180772 0.09269076 -0.46803543 0.43844876 0.124723785 -0.38322115 0.2678504 0.30714935 0.35733414 -0.48657703 -0.7086611 0.10953276 0.3887234 0.32341358 0.42992553 0.2611968 -0.5585841 -0.9062169 0.6341062 -0.027643114 0.73480546 -0.3827454 0.017932283 -0.73018736 -0.06881207 0.13005617 0.23597649 -0.77828115 0.21706814 -0.3333214 0.036359247 0.16237049 -0.14056765 0.2892359 -0.2541619 0.41500786 -0.14238071 -0.15026163 -0.073954634 -0.30663726 0.17035541 0.44460192 0.12709911 -0.7756639 -0.272857 -0.36047077 0.23785938 -0.3450374 -0.24216852 0.5691419 0.42643157 0.15739663 -0.08071472 -0.4623997 -0.66519904 1.0141367 0.0351492 -0.5184365 0.4538291 0.054621894 0.8819822 -0.18893366 -0.33679527 -0.5496334 -0.1979337 0.03752576 -0.3766364 0.63630205 -0.047935978 -0.06293701
just 0.5104137 -0.15008913 0.21882801 -0.30305478 -0.5444834 0.37876642 0.09897926 0.44747305 0.1086286 0.027641626 0.27127302 0.008711525 -0.2671642 0.7437204 0.65096325 0.4957773 1.0793058 -0.19744816 -0.20724536 0.312572 0.24687023 0.013280823 0.29502898 -0.11638359 0.31508672 0.39693153 0.63205516 0.21077941 0.6565504 0.408354 -0.3503843 0.60877025 -0.4802883 0.2085498 0.33833668 -0.2027721 -0.18313833 -0.24307647 0.489749 -0.1404618 1.0605856 0.071642265 -0.4315602 0.0076784156 0.6456028 -0.06324777 0.6102462 0.3393932 -0.102414265 -0.67004734 0.048749417 -0.029509826 0.4679008 -0.41672596 0.33044118 -0.6121395 0.24257454 0.33797312 0.48097464 -0.16157804 -0.12866314 -0.31496513 -0.35417533 0.7099722 -0.11489689 0.5408858 -0.18532397 0.0034328976 -0.22532965 0.23237376 -0.023946729 0.119641535 -0.77877074 0.03758899 -0.012839479 0.54290533 -0.18908173 -0.39954135 -0.03953108 0.7858306 -0.88020957 0.09124963 -0.44732705 0.4188753 0.12395266 -0.36350474 0.2557822 0.29413295 0.33985287 -0.46544454 -0.67147404 0.10272959 0.37470114 0.30791473 0.41537693 0.2516654 -0.54055136 -0.86457986 0.612 -0.029043777 0.70441854 -0.36685267 0.021665443 -0.7010414 -0.06651742 0.12118065 0.22667743 -0.7432251 0.20500779 -0.31750447 0.03079729 0.15984902 -0.13506408 0.27408206 -0.24035215 0.40211865 -0.14031835 -0.14338706 -0.07311888 -0.29377237 0.16293408 0.4267408 0.12307619 -0.7407961 -0.2619923 -0.3485419 0.2325166 -0.3285955 -0.23105226 0.54695517 0.4094391 0.15603247 -0.08108225 -0.44190878 -0.63125193 0.9692953 0.035086013 -0.49811858 0.4329834 0.051538885 0.8392251 -0.17740189 -0.31940845 -0.5233691 -0.19052696 0.03198937 -0.3590895 0.6040311 -0.048465416 -0.061156947
but 0.5562988 -0.16479087 0.2353659 -0.33262762 -0.59085834 0.412393 0.10854401 0.48444134 0.118374616 0.02918601 0.29398412 0.014447192 -0.2923737 0.8117579 0.7055772 0.54275876 1.1712695 -0.21344946 -0.22440085 0.33461148 0.2741246 0.011447183 0.3253253 -0.12882543 0.34191906 0.43171433 0.68597007 0.22899 0.71204984 0.4423022 -0.37821952 0.6647388 -0.5187537 0.22984304 0.36884555 -0.22293533 -0.19806026 -0.26179543 0.53151923 -0.15189135 1.1515466 0.078689545 -0.47334394 0.010175793 0.7023724 -0.06956792 0.66634965 0.36767834 -0.112110026 -0.7302728 0.048110217 -0.031726092 0.5126848 -0.4502199 0.35503468 -0.66658777 0.25912088 0.36646733 0.5279309 -0.17696834 -0.14208485 -0.34287268 -0.3831242 0.7715471 -0.1204032 0.589016 -0.20790258 0.0026886736 -0.24975048 0.25665247 -0.027404938 0.12697938 -0.84241647 0.039342277 -0.008056153 0.59002745 -0.20984766 -0.43332425 -0.041788746 0.85385627 -0.95654374 0.09388531 -0.48644492 0.45835394 0.12984163 -0.39603767 0.27922374 0.3212468 0.36992678 -0.50727063 -0.7379095 0.11426778 0.4034958 0.33828285 0.44867182 0.2666981 -0.58231914 -0.9416262 0.6612438 -0.028886506 0.76871634 -0.39398625 0.019777823 -0.7598235 -0.07618579 0.13489467 0.24843901 -0.80998665 0.22654408 -0.34907436 0.03360504 0.17083633 -0.14634575 0.2945735 -0.265932 0.43244788 -0.14808339 -0.16120714 -0.07682508 -0.32240394 0.17643936 0.45987725 0.13431954 -0.8003925 -0.27873012 -0.3750908 0.24811292 -0.36160904 -0.25379577 0.5924985 0.43911275 0.1648949 -0.08449679 -0.47815517 -0.6920453 1.0536083 0.033355344 -0.5425928 0.46761006 0.056715798 0.9131013 -0.1964007 -0.34688896 -0.5725763 -0.20427868 0.034897618 -0.39518544 0.6575515 -0.05141158 -0.07240877
this 0.6021355 -0.17604828 0.2539039 -0.35790282 -0.64238846 0.44888848 0.11375896 0.52585614 0.1277974 0.033991694 0.32263058 0.013389478 -0.315032 0.87828624 0.76671785 0.5898204 1.2740057 -0.23026358 -0.24583568 0.36479154 0.29509506 0.013310652 0.34654188 -0.14017032 0.3714586 0.46398488 0.747619 0.25255448 0.7728666 0.47864252 -0.41384798 0.72071165 -0.5639883 0.24667108 0.39722228 -0.23740235 -0.22036035 -0.28159735 0.5787884 -0.16660337 1.2538791 0.08445974 -0.51190376 0.014476698 0.7626923 -0.08133088 0.72502863 0.40293285 -0.118773624 -0.7913864 0.05837853 -0.035403743 0.5521693 -0.49134243 0.38587254 -0.72432655 0.2855168 0.39995426 0.5723579 -0.19448777 -0.15423565 -0.37325373 -0.41840076 0.8385459 -0.13035308 0.63700116 -0.22391321 0.0012110434 -0.27130973 0.2751053 -0.028188404 0.1371647 -0.9195616 0.040493194 -0.012895361 0.6446741 -0.22859734 -0.4713962 -0.04261844 0.9261993 -1.0409688 0.106072284 -0.52846736 0.49737418 0.14763786 -0.4313466 0.30332613 0.34638587 0.40396455 -0.55126685 -0.7952062 0.12746777 0.44147867 0.36271295 0.48379067 0.2950686 -0.63440984 -1.0262349 0.7222884 -0.031569898 0.8307104 -0.43221414 0.02294505 -0.8228721 -0.08344827 0.14220613 0.26979217 -0.8801643 0.24224456 -0.37375024 0.04230453 0.18698676 -0.15730035 0.325445 -0.28311127 0.4712613 -0.16133057 -0.17075376 -0.085048355 -0.3497619 0.19245389 0.50312287 0.13944162 -0.8725817 -0.30456302 -0.41207653 0.271928 -0.39136347 -0.27655193 0.6468302 0.48254436 0.18466727 -0.09159712 -0.521432 -0.75377005 1.1416926 0.038736984 -0.58817255 0.5125752 0.06606411 0.99185455 -0.20910105 -0.37857947 -0.61857724 -0.2224384 0.03938893 -0.42730123 0.7159046 -0.057143815 -0.07762857
im 0.5544587 -0.16407831 0.23316929 -0.3319411 -0.5878808 0.4086258 0.10509138 0.48346245 0.11842386 0.029871877 0.29255083 0.015206878 -0.29445967 0.80883276 0.7008854 0.5376959 1.1713119 -0.2142635 -0.22403094 0.34064084 0.2718882 0.016674185 0.31881595 -0.12685406 0.33741993 0.42668733 0.6812365 0.22723193 0.7129791 0.44145742 -0.37558234 0.6616852 -0.5176969 0.22822157 0.36323217 -0.22270493 -0.20294353 -0.26488277 0.52733755 -0.15260264 1.1499102 0.075012475 -0.4727902 0.010513862 0.7050069 -0.07367523 0.664707 0.36740884 -0.10721187 -0.7236218 0.052663356 -0.033594728 0.5098713 -0.4500077 0.35902622 -0.66662055 0.26301947 0.36705804 0.52473176 -0.17711744 -0.13708581 -0.34203365 -0.38255674 0.76571554 -0.121425815 0.58598065 -0.20182088 0.0028712943 -0.24781439 0.25204405 -0.022116698 0.12709364 -0.8476943 0.039100956 -0.01110065 0.586122 -0.21026133 -0.43678716 -0.04262657 0.8502588 -0.95445424 0.0963724 -0.48462546 0.45425487 0.13224237 -0.39581624 0.27686676 0.31388593 0.36900404 -0.5040999 -0.7350664 0.113224916 0.4064838 0.33733514 0.44476053 0.26909766 -0.5816125 -0.9355871 0.66061205 -0.025776092 0.7622032 -0.3925635 0.020474304 -0.75536793 -0.07522327 0.13180514 0.24502426 -0.8054499 0.22419786 -0.34711054 0.032612562 0.16763721 -0.14678286 0.29784775 -0.26449934 0.43209502 -0.14939217 -0.15878169 -0.0759836 -0.3178099 0.17590173 0.4631107 0.12820387 -0.79960877 -0.28449312 -0.3740782 0.25092536 -0.35678795 -0.24925803 0.59023076 0.44456744 0.16507898 -0.08582382 -0.47710142 -0.6898052 1.0477481 0.03156714 -0.5371166 0.46842086 0.060456105 0.91161364 -0.19700877 -0.3469997 -0.57010365 -0.2076557 0.034163266 -0.39537513 0.65558356 -0.051005628 -0.070807666
your 0.563936 -0.1612303 0.23659705 -0.3304852 -0.59940606 0.41740412 0.10638638 0.48549286 0.121474385 0.02679173 0.29974315 0.013812919 -0.2953848 0.81343526 0.71268576 0.5492527 1.182812 -0.21120472 -0.230048 0.33636817 0.2746308 0.013475311 0.32753718 -0.13404922 0.33885878 0.43686032 0.6905607 0.22972485 0.71620256 0.4455438 -0.3804714 0.6713547 -0.52688634 0.22986788 0.36707827 -0.21869372 -0.20056729 -0.26452532 0.53863084 -0.1545321 1.1553043 0.07384909 -0.47422957 0.012393403 0.7088726 -0.07140775 0.6715794 0.37430742 -0.1128354 -0.7316331 0.05018517 -0.028992089 0.5162788 -0.45298824 0.35851866 -0.67112476 0.26653418 0.37147292 0.52585506 -0.17961618 -0.1416798 -0.34319106 -0.38621503 0.78011763 -0.12665138 0.59586406 -0.20597215 0.0046652555 -0.2524573 0.25994822 -0.024535608 0.12643802 -0.8532194 0.035201214 -0.013589025 0.5977998 -0.2091612 -0.4374598 -0.04513274 0.85657406 -0.96311414 0.09761448 -0.49271816 0.45825875 0.13399895 -0.40406984 0.28239033 0.32400572 0.37199482 -0.5114266 -0.74191326 0.11431685 0.4100449 0.3370835 0.45524356 0.27614865 -0.584373 -0.94970834 0.66958684 -0.028771836 0.7731728 -0.39995858 0.02349893 -0.76469773 -0.07239138 0.1388139 0.24633409 -0.81550044 0.22591597 -0.34654158 0.0399405 0.17477113 -0.14826307 0.30062047 -0.26959917 0.4335348 -0.15268199 -0.16113773 -0.07766843 -0.3213045 0.17684323 0.46262947 0.13467829 -0.8065965 -0.2847158 -0.3784278 0.25220904 -0.36536467 -0.2572428 0.5925324 0.4493315 0.17049876 -0.08855843 -0.4811166 -0.69414467 1.0613585 0.030340739 -0.5464029 0.471121 0.061941683 0.9216412 -0.1964539 -0.35109836 -0.57345635 -0.2051254 0.034732044 -0.39778537 0.66048044 -0.04904121 -0.070448875
was 0.56111044 -0.16267931 0.23792344 -0.33482695 -0.5960292 0.41402408 0.10469817 0.4855388 0.11790909 0.026716944 0.29552618 0.0123657575 -0.2916128 0.8156201 0.7109477 0.5434273 1.1781288 -0.21208586 -0.22521806 0.33908784 0.27296522 0.016687313 0.32128173 -0.12714007 0.33787686 0.43370876 0.69116247 0.23149434 0.7137859 0.44184783 -0.38061878 0.664303 -0.51921016 0.23142812 0.36907732 -0.22195113 -0.19905862 -0.2628999 0.5323592 -0.15576419 1.1543027 0.07483132 -0.47293493 0.011930837 0.7096035 -0.068890415 0.66898775 0.37200034 -0.11216515 -0.7336483 0.05006461 -0.03004629 0.5149147 -0.4544489 0.3551464 -0.6706483 0.2654452 0.36872095 0.5299348 -0.18092102 -0.14021498 -0.3433664 -0.3885107 0.7749905 -0.120296225 0.59486926 -0.20487556 0.00035511865 -0.250729 0.25450918 -0.027539622 0.1277489 -0.847701 0.042974114 -0.010143254 0.59040934 -0.20517065 -0.43929192 -0.04537783 0.8559804 -0.9580967 0.092701994 -0.49144533 0.45872363 0.13325143 -0.40230057 0.27998117 0.3169397 0.3732254 -0.5077092 -0.7356015 0.11716268 0.4079416 0.3364283 0.4500612 0.2731514 -0.58863324 -0.9477255 0.66323644 -0.027525079 0.77378935 -0.39842135 0.019291444 -0.7607917 -0.07557633 0.1335944 0.24575028 -0.81383085 0.22253643 -0.34747002 0.03419557 0.16934247 -0.14571276 0.29475147 -0.2622259 0.43601945 -0.14851697 -0.16300862 -0.08139746 -0.3163854 0.18344188 0.46621284 0.12841283 -0.80401665 -0.2825143 -0.38225687 0.24844176 -0.35712108 -0.25249496 0.59561914 0.44670698 0.16367687 -0.08947352 -0.47961286 -0.693626 1.0592813 0.035203252 -0.54632103 0.47209617 0.056345157 0.91922003 -0.1999152 -0.35113746 -0.57039046 -0.20424742 0.036535703 -0.3987889 0.6620007 -0.048074648 -0.07221129
at 0.5417779 -0.15712595 0.23306528 -0.32527375 -0.5783996 0.40582514 0.106677026 0.47542784 0.11166827 0.031260367 0.29079032 0.009837399 -0.28790528 0.79098743 0.69124556 0.52937686 1.1464369 -0.2085069 -0.22291723 0.32935655 0.26637244 0.012002964 0.3167139 -0.13006327 0.33594096 0.4236366 0.6717998 0.22970796 0.6972309 0.43474144 -0.37081185 0.64787334 -0.5073656 0.2182823 0.3599069 -0.21353075 -0.19556326 -0.2593388 0.52192485 -0.1504584 1.1271368 0.07214493 -0.46164224 0.011735647 0.6865536 -0.07299862 0.6491606 0.35814402 -0.11017793 -0.7128943 0.047318842 -0.027704142 0.4975984 -0.4435668 0.3439433 -0.6516846 0.25487542 0.35450134 0.5107414 -0.1754456 -0.13956638 -0.33092147 -0.37502077 0.75283766 -0.11632678 0.5785192 -0.19703743 -0.0010463358 -0.24221714 0.25096798 -0.021899812 0.12607297 -0.8286133 0.03570947 -0.013157962 0.5757975 -0.20338501 -0.42178696 -0.043578476 0.8319173 -0.9360119 0.09639615 -0.47912878 0.44609642 0.12650777 -0.38519955 0.27579334 0.30951 0.35997787 -0.49134785 -0.7194966 0.11159713 0.39687175 0.3263794 0.4381022 0.26775244 -0.5693006 -0.921649 0.648327 -0.027226796 0.7448083 -0.3870327 0.01631211 -0.7402305 -0.06956207 0.12840407 0.23740026 -0.78666586 0.21769871 -0.33753482 0.031936347 0.1642354 -0.13974933 0.2926283 -0.25710028 0.4266242 -0.14465582 -0.15455115 -0.07481045 -0.30991966 0.17629567 0.45332682 0.12705737 -0.78758824 -0.27772203 -0.3684418 0.24458116 -0.35290733 -0.24809188 0.57946813 0.43015817 0.16102988 -0.08556795 -0.46692243 -0.6700726 1.026748 0.036514074 -0.5257402 0.46023613 0.05710877 0.89302737 -0.18910904 -0.34367448 -0.55396354 -0.1998989 0.037683982 -0.38596225 0.64221776 -0.052651756 -0.0686451
not 0.49576688 -0.14944565 0.21485378 -0.2932325 -0.5292272 0.36939585 0.09868215 0.43278134 0.10684229 0.027775962 0.2629166 0.0077164406 -0.260605 0.7256325 0.6288482 0.48486528 1.04915 -0.19023246 -0.19956426 0.29889077 0.2428614 0.012261746 0.28928068 -0.114563234 0.30367935 0.38739938 0.6125397 0.20318395 0.6367857 0.39637956 -0.3370086 0.590502 -0.46777833 0.20252854 0.32675284 -0.19906409 -0.18310338 -0.23571491 0.47335628 -0.13840865 1.0271611 0.069626145 -0.42265162 0.008386443 0.6293045 -0.06427988 0.5982825 0.33197677 -0.10160528 -0.6525806 0.04633818 -0.027015066 0.45862365 -0.40363306 0.3215779 -0.5989677 0.23244484 0.32928538 0.4694979 -0.16069756 -0.12399748 -0.30304292 -0.34213948 0.6913362 -0.105880946 0.52608186 -0.18262726 -0.0014323326 -0.21926303 0.22585101 -0.02473294 0.11125409 -0.7568963 0.03204245 -0.008757171 0.5306032 -0.18296143 -0.39109147 -0.03925407 0.76547354 -0.8551863 0.08726479 -0.43807256 0.41263354 0.11823678 -0.35276467 0.2529519 0.28415698 0.32931605 -0.4542005 -0.65943813 0.1036772 0.36190662 0.30358008 0.401373 0.23832892 -0.5260582 -0.8393793 0.59092224 -0.024683857 0.68715674 -0.3507076 0.01648624 -0.6788649 -0.06688384 0.12290147 0.21902058 -0.7216649 0.20094696 -0.3079999 0.033350736 0.15423895 -0.12725289 0.26497993 -0.23564546 0.38896826 -0.13362886 -0.14502878 -0.06922911 -0.28415447 0.1601192 0.41367596 0.11383471 -0.7214864 -0.25467527 -0.338709 0.22255638 -0.31773806 -0.22327116 0.5298969 0.39575884 0.14807111 -0.07902158 -0.4275328 -0.6199505 0.94253904 0.0332872 -0.4856092 0.423379 0.056194358 0.8151415 -0.17520688 -0.3124399 -0.50879335 -0.18183888 0.030669028 -0.3502386 0.5886199 -0.042789828 -0.061029535
if 0.51318103 -0.1546655 0.21889575 -0.30306593 -0.54671896 0.3819436 0.100187995 0.45040652 0.11223844 0.027441919 0.27436888 0.0075231143 -0.26701176 0.744492 0.6525383 0.4960646 1.0791212 -0.19889411 -0.20839816 0.31121787 0.24791141 0.012527408 0.29920658 -0.12175106 0.31154576 0.39730057 0.6342512 0.21441521 0.6549656 0.4074159 -0.34665364 0.60952085 -0.47679716 0.2073649 0.3403571 -0.20245346 -0.18770538 -0.23898819 0.49219146 -0.13767655 1.062333 0.068782814 -0.43642583 0.011793018 0.6496899 -0.06347918 0.6130731 0.33626908 -0.10123742 -0.6728532 0.048357673 -0.026959226 0.46928707 -0.41241205 0.3304627 -0.6162718 0.2395299 0.33838022 0.48461124 -0.16750917 -0.12516448 -0.3168684 -0.35761604 0.7103144 -0.11012754 0.54506445 -0.18620747 -0.00012313355 -0.22874539 0.23459098 -0.023250705 0.11551018 -0.780462 0.037882425 -0.011071874 0.54475015 -0.19136557 -0.4008271 -0.04094979 0.7815581 -0.88190407 0.08525432 -0.45090073 0.42509684 0.12519383 -0.36428565 0.26166078 0.2963605 0.33896875 -0.4646316 -0.6772255 0.103185266 0.37303236 0.31091493 0.41421533 0.24782245 -0.53602487 -0.8673584 0.61130434 -0.02804581 0.70591384 -0.36604545 0.01728252 -0.69787645 -0.0676308 0.12049111 0.22789244 -0.74589056 0.20685326 -0.31504244 0.03552204 0.15550476 -0.13082014 0.2742875 -0.23942234 0.39977852 -0.14031783 -0.15001057 -0.0729341 -0.29266095 0.16699567 0.42364186 0.122032344 -0.7425315 -0.25815207 -0.3495799 0.23185381 -0.33030716 -0.23509414 0.5443701 0.40979356 0.15321718 -0.08001341 -0.44125593 -0.6375663 0.9669878 0.028956981 -0.49839774 0.43354806 0.057613958 0.8403433 -0.18328412 -0.3200205 -0.522213 -0.1899202 0.031369597 -0.36326024 0.6042271 -0.046650242 -0.06369675
are 0.49059913 -0.14345568 0.21152186 -0.29456902 -0.5207072 0.36146218 0.09358756 0.42569146 0.10371504 0.02689943 0.26112953 0.013097386 -0.2554947 0.71107054 0.6201576 0.47658682 1.0353415 -0.18626872 -0.19860172 0.29748777 0.23606174 0.009231905 0.28664157 -0.1167308 0.29856816 0.37920633 0.6033165 0.20449415 0.6239948 0.38853168 -0.332293 0.58446276 -0.4557676 0.19760941 0.32444036 -0.19475186 -0.17550752 -0.23257484 0.46698192 -0.13595062 1.0156828 0.06982456 -0.41701615 0.010059751 0.62257856 -0.062068794 0.58616126 0.3259557 -0.09790509 -0.6383167 0.04388158 -0.023797518 0.44942302 -0.39550954 0.31221965 -0.58464575 0.2310587 0.32433975 0.4625321 -0.156562 -0.12104926 -0.29953802 -0.3418795 0.67807937 -0.11090987 0.5156932 -0.18142962 -0.0017860756 -0.21638733 0.22060883 -0.021521073 0.11378898 -0.74190164 0.034858596 -0.009260969 0.5190506 -0.18621479 -0.38640594 -0.034661874 0.7533866 -0.839762 0.08663557 -0.42757845 0.40669233 0.11596306 -0.3538339 0.24798699 0.27824652 0.32500577 -0.4411711 -0.64573073 0.101604834 0.3566507 0.29831165 0.39453816 0.2372915 -0.51411587 -0.8276173 0.5860896 -0.024949672 0.673031 -0.34823754 0.017040806 -0.67107344 -0.06447222 0.11739541 0.21384272 -0.70937717 0.19463634 -0.3030128 0.034932666 0.14970711 -0.12756494 0.25989684 -0.23066944 0.38244984 -0.13290903 -0.13858984 -0.06793265 -0.28344014 0.15986593 0.40371028 0.11485925 -0.7053772 -0.24930905 -0.3332797 0.22063473 -0.31253526 -0.22565371 0.52067554 0.39247224 0.1484386 -0.07570368 -0.41668624 -0.6063913 0.9258656 0.031216165 -0.47674263 0.41080478 0.052691624 0.8040255 -0.17527369 -0.31112868 -0.49857205 -0.18396243 0.033835627 -0.3446843 0.58096325 -0.041296218 -0.05824965
out 0.5488127 -0.16154507 0.23132217 -0.32817516 -0.5793874 0.4057675 0.10129936 0.4768909 0.11872249 0.031713273 0.29222158 0.014805913 -0.2899577 0.79378784 0.6963539 0.53368884 1.1504692 -0.20812893 -0.22396384 0.3293555 0.26617545 0.015618637 0.3176341 -0.1281688 0.3329433 0.41909763 0.67660177 0.22832607 0.69922376 0.4348038 -0.37471962 0.6544152 -0.51268524 0.22606097 0.36176252 -0.21483515 -0.19416659 -0.25640017 0.52514166 -0.14925545 1.1356332 0.07395623 -0.4631559 0.01109225 0.6946308 -0.073982865 0.65347725 0.3637798 -0.10964016 -0.7125019 0.051882904 -0.031147553 0.50495964 -0.44665095 0.35288677 -0.656075 0.25839287 0.36215863 0.5175442 -0.17172801 -0.14133346 -0.33524776 -0.38115013 0.7572128 -0.11934897 0.5802814 -0.2001823 -0.00047322278 -0.24051908 0.25332856 -0.02485946 0.12837276 -0.82889336 0.040212553 -0.008080405 0.580069 -0.20345616 -0.42673624 -0.040623028 0.83723676 -0.94119346 0.097206466 -0.47657058 0.45104912 0.12825076 -0.38738698 0.27875894 0.31447423 0.36011034 -0.4933143 -0.7178996 0.11162611 0.40030628 0.3330679 0.44039536 0.26817554 -0.5774985 -0.9252999 0.6535677 -0.024676114 0.7544178 -0.38972703 0.019536847 -0.7443518 -0.07328476 0.12873153 0.24367698 -0.7964321 0.22100952 -0.34188762 0.032735642 0.16730486 -0.14152275 0.2936714 -0.26119804 0.4248336 -0.14641452 -0.1563238 -0.07880905 -0.31368628 0.17948489 0.456868 0.13080138 -0.7894097 -0.2775885 -0.372046 0.24201706 -0.34904385 -0.24436766 0.581845 0.43399483 0.16055931 -0.08417582 -0.46738222 -0.6765354 1.0346706 0.03477914 -0.5282191 0.46061358 0.059622254 0.9000371 -0.1897518 -0.3450442 -0.5602798 -0.20371754 0.037857745 -0.3893736 0.6471177 -0.04956481 -0.064390294
get 0.5081488 -0.15184167 0.2134848 -0.3020561 -0.5412258 0.37552458 0.09745801 0.44224364 0.11022848 0.02950608 0.26489797 0.0126142325 -0.26311156 0.7372302 0.6414821 0.4877794 1.0661756 -0.19083874 -0.20675437 0.30548385 0.24475938 0.013024398 0.28919312 -0.116055414 0.31018168 0.3903615 0.62065595 0.21221925 0.6489884 0.40327394 -0.3472061 0.6032317 -0.47279108 0.20732518 0.33143455 -0.20198382 -0.18074559 -0.23635046 0.48197046 -0.14167099 1.0475146 0.06914285 -0.43147412 0.008091161 0.642811 -0.062177084 0.60862076 0.3376676 -0.103679776 -0.6623436 0.047328908 -0.030694287 0.46635407 -0.41108316 0.32689622 -0.6066737 0.2352641 0.33253106 0.47655272 -0.15938409 -0.12943077 -0.31386587 -0.34997386 0.7006525 -0.110024005 0.5360317 -0.18773739 0.0043533775 -0.22611846 0.22798185 -0.01968591 0.119717725 -0.7664539 0.03561747 -0.012186989 0.5371807 -0.18650289 -0.39602455 -0.034140676 0.7758607 -0.8707948 0.08940393 -0.44599944 0.41907194 0.119632855 -0.36197305 0.25356275 0.28996053 0.3328617 -0.45762843 -0.666391 0.106442 0.3681877 0.30819276 0.40545377 0.24477549 -0.52838886 -0.8579776 0.604704 -0.027169747 0.6986747 -0.356834 0.01831768 -0.68668514 -0.06779394 0.122231305 0.22448438 -0.73130906 0.20089653 -0.31570998 0.03209887 0.1513213 -0.12995894 0.271513 -0.23916866 0.39217862 -0.13175434 -0.14690275 -0.07374125 -0.29195097 0.1635965 0.42158854 0.11927906 -0.72817427 -0.25813025 -0.34407955 0.22890005 -0.32491374 -0.23014681 0.5375363 0.40197942 0.15181918 -0.0802515 -0.4368063 -0.624816 0.9579492 0.033379488 -0.49229354 0.42405036 0.05434108 0.8325618 -0.1755154 -0.31553787 -0.5156696 -0.18688305 0.03703568 -0.3573003 0.6006077 -0.044908788 -0.06244081
like 0.54750484 -0.16267553 0.2316813 -0.32546625 -0.5855038 0.40971655 0.106868565 0.4831615 0.11922537 0.03222526 0.2906058 0.015283108 -0.28543335 0.804125 0.70198333 0.539245 1.162188 -0.21325581 -0.22342657 0.33364162 0.26850185 0.014463531 0.32100123 -0.1261242 0.33900762 0.42518932 0.67941785 0.22609815 0.7070728 0.4424881 -0.37796414 0.6616737 -0.5190689 0.22338142 0.36408144 -0.22006935 -0.19866326 -0.25722244 0.5242869 -0.15446597 1.145799 0.072313316 -0.46600622 0.010981146 0.69998205 -0.072433904 0.66103727 0.3682403 -0.10943646 -0.7208408 0.04820307 -0.030763274 0.50704134 -0.4507361 0.3503396 -0.66007406 0.2575431 0.36465594 0.5220078 -0.1763277 -0.13942331 -0.34239048 -0.3852103 0.76347774 -0.117648765 0.58693165 -0.20555104 0.005150687 -0.24544896 0.2533857 -0.028034985 0.12690724 -0.8427449 0.042412944 -0.012487633 0.5876052 -0.20441504 -0.43351674 -0.041520007 0.8483144 -0.9464095 0.098434515 -0.4873073 0.45682144 0.13343515 -0.39717296 0.2768551 0.31315094 0.3652804 -0.49941626 -0.72439253 0.11197619 0.4065444 0.333885 0.44539753 0.2664774 -0.57825905 -0.93598485 0.654744 -0.031197276 0.7594046 -0.39279023 0.017886046 -0.75102204 -0.07025221 0.1295366 0.24587214 -0.80161643 0.2212851 -0.34282446 0.038758487 0.16779792 -0.14151949 0.29791436 -0.26354325 0.43176362 -0.15143229 -0.155481 -0.07872109 -0.31318432 0.1798866 0.45950246 0.12937303 -0.80024844 -0.27901894 -0.3741784 0.24642484 -0.35353085 -0.24933639 0.58553374 0.43613043 0.16579334 -0.085712 -0.47239265 -0.6870787 1.0438262 0.034812905 -0.5374612 0.4684615 0.057019398 0.9092604 -0.193164 -0.3462339 -0.5665697 -0.2023422 0.035923004 -0.3918705 0.6523936 -0.053705893 -0.06910014
what 0.45289227 -0.13215064 0.19019674 -0.268994 -0.48655275 0.3354454 0.08404876 0.40120012 0.097774364 0.027542274 0.24311242 0.007780882 -0.23833314 0.6611013 0.57885766 0.44066486 0.9629754 -0.1768031 -0.18785404 0.2777414 0.22175854 0.00941914 0.26053604 -0.1086676 0.27961692 0.34921002 0.56380844 0.18956682 0.5843715 0.36080453 -0.31130865 0.5461458 -0.42636254 0.18201502 0.3021229 -0.1826954 -0.16763349 -0.21294898 0.43542776 -0.12528242 0.9417541 0.06245971 -0.38973036 0.0096649425 0.5734564 -0.05981956 0.5428383 0.30159527 -0.09050105 -0.59775215 0.042631973 -0.02157379 0.42042956 -0.37160006 0.28864637 -0.5429201 0.21533933 0.30268022 0.4277846 -0.14448507 -0.117108025 -0.277369 -0.3178713 0.63077 -0.09948506 0.48594484 -0.16988242 9.8799304e-05 -0.20033523 0.20729764 -0.02325528 0.1040085 -0.69301844 0.029855913 -0.0065004462 0.48185673 -0.17217848 -0.3569265 -0.036201768 0.6994595 -0.7822024 0.07877808 -0.3982061 0.37753564 0.10923282 -0.32532722 0.22913915 0.26302698 0.30217737 -0.41192934 -0.60022545 0.09521495 0.33453503 0.27682889 0.37048772 0.22141422 -0.48050824 -0.7690589 0.53894794 -0.024804896 0.6267334 -0.32078665 0.017925994 -0.6240915 -0.060229015 0.10747556 0.20379072 -0.6603569 0.1855208 -0.28206408 0.02840974 0.13653058 -0.116606675 0.24685843 -0.2168098 0.35860938 -0.12163409 -0.13049017 -0.06374724 -0.26403025 0.14479578 0.37449834 0.10525207 -0.6605948 -0.22758095 -0.30782208 0.20320566 -0.29549092 -0.20387386 0.48652008 0.36392143 0.1399499 -0.07145346 -0.39396214 -0.56388223 0.8615423 0.026284687 -0.4430867 0.38668293 0.050034508 0.7470008 -0.16304648 -0.28689018 -0.46963772 -0.17037427 0.029820329 -0.3200344 0.5369213 -0.038526103 -0.05696658
up 0.53902817 -0.16170675 0.23052876 -0.3166683 -0.5702612 0.4003944 0.10197505 0.4696002 0.11227573 0.02918418 0.28462318 0.008172585 -0.2831955 0.78404665 0.68214923 0.519588 1.1290791 -0.20309083 -0.21547298 0.32552016 0.25909054 0.0151766045 0.3088217 -0.12844858 0.3263067 0.41662338 0.6606287 0.2207406 0.6880673 0.43072408 -0.36869484 0.64317656 -0.49954164 0.22197652 0.35394105 -0.21061932 -0.19431828 -0.2561851 0.51059496 -0.14944278 1.113277 0.073648795 -0.45685494 0.012145985 0.6821366 -0.066269405 0.6452772 0.35665384 -0.10723496 -0.7028988 0.05172092 -0.027437994 0.4969396 -0.4371271 0.34627917 -0.6445104 0.2535898 0.3576736 0.5061155 -0.17301089 -0.13203666 -0.3282572 -0.37529328 0.7471399 -0.12073062 0.5696014 -0.19978951 0.0015250295 -0.24006079 0.24629499 -0.021545015 0.12184824 -0.8176002 0.039403025 -0.013826426 0.56886935 -0.19787756 -0.42373317 -0.038972843 0.82182246 -0.92348444 0.092356 -0.46837798 0.44469306 0.1306656 -0.38457534 0.27437112 0.30545962 0.35670343 -0.48451644 -0.71104115 0.10717982 0.39547437 0.32215828 0.43051258 0.26013082 -0.56537694 -0.9118536 0.6400427 -0.028403034 0.7425353 -0.38092676 0.01887079 -0.7360107 -0.06777217 0.13101053 0.23679864 -0.7796541 0.21280606 -0.33184227 0.037219197 0.16687824 -0.14302455 0.28502524 -0.25231966 0.41816333 -0.14131428 -0.1507635 -0.074327014 -0.3069513 0.17135935 0.44850206 0.1273101 -0.772842 -0.2710961 -0.36285987 0.24347813 -0.3425388 -0.2427739 0.56960297 0.43006286 0.15856467 -0.08494531 -0.45879132 -0.66970927 1.014416 0.035281524 -0.52027947 0.4549546 0.054958872 0.8823017 -0.1907199 -0.3390523 -0.5504965 -0.19689682 0.03770319 -0.38069576 0.6363396 -0.045703843 -0.06690546
its 0.50072527 -0.14790933 0.21402735 -0.29777566 -0.5324568 0.37318388 0.09502117 0.43690693 0.10517946 0.030650625 0.26464793 0.010983647 -0.257868 0.7281895 0.63596964 0.48534527 1.0536993 -0.18915193 -0.20037138 0.30429602 0.24272226 0.008448667 0.29002678 -0.11332603 0.30763656 0.38582432 0.6180191 0.20910351 0.63784707 0.39433548 -0.33787993 0.59577096 -0.4656228 0.20090526 0.32597348 -0.19903827 -0.17684168 -0.23354585 0.4780534 -0.13668706 1.0323722 0.06758724 -0.42451814 0.010597331 0.63428867 -0.06551673 0.60120076 0.32858548 -0.09716399 -0.6561783 0.044281818 -0.026935115 0.45554253 -0.40505242 0.32156056 -0.59769666 0.23136786 0.32570857 0.47435325 -0.15860577 -0.12709999 -0.30389953 -0.3425302 0.6884847 -0.10749712 0.52862525 -0.18294902 0.0006838615 -0.21984045 0.22598934 -0.025907073 0.1153288 -0.7579392 0.03253472 -0.006185697 0.53295517 -0.18462847 -0.3935325 -0.03436713 0.7642588 -0.8592743 0.08450705 -0.44070444 0.41381654 0.11811827 -0.35711247 0.24902049 0.2860915 0.32909465 -0.45621744 -0.6577874 0.10175451 0.36234573 0.30362514 0.40508488 0.23945247 -0.5221503 -0.84225035 0.5906959 -0.022523448 0.6851118 -0.35244644 0.018322455 -0.68236536 -0.06851034 0.11887168 0.21880098 -0.72565216 0.20029564 -0.31213737 0.028445074 0.15274148 -0.12920061 0.26908332 -0.23661372 0.3902367 -0.13004874 -0.14134386 -0.06967932 -0.28983685 0.15915498 0.41259873 0.11536616 -0.7230468 -0.25084934 -0.33899316 0.22436368 -0.3183183 -0.22438514 0.534194 0.3952397 0.15013434 -0.07934234 -0.4296664 -0.6178579 0.9454832 0.028513331 -0.48863104 0.4241041 0.053701278 0.8180476 -0.17528279 -0.31064543 -0.512656 -0.18518604 0.036008872 -0.35215798 0.58717537 -0.04518378 -0.0638936
when 0.4931454 -0.1421155 0.20497818 -0.29100883 -0.52027977 0.3649491 0.094465464 0.4282537 0.105829135 0.024077153 0.25867122 0.013388078 -0.25379938 0.71508574 0.61914134 0.47289112 1.0345364 -0.18714893 -0.20192477 0.29880187 0.24038047 0.011409889 0.2867994 -0.11803741 0.30002517 0.38084736 0.6047157 0.20207675 0.62555206 0.3919699 -0.33404705 0.58773476 -0.45808595 0.20078202 0.32507536 -0.19143467 -0.17966479 -0.23231883 0.46930867 -0.13257504 1.0178219 0.06709611 -0.41321048 0.013478322 0.6188174 -0.06335692 0.58997655 0.32121053 -0.09640779 -0.63727397 0.049287662 -0.029694188 0.44920045 -0.39998057 0.31285033 -0.59009254 0.2313245 0.32540038 0.45998016 -0.15329348 -0.12033608 -0.30014488 -0.34070852 0.6803551 -0.10421726 0.522639 -0.18059595 0.00067742215 -0.21998176 0.22619161 -0.021947125 0.115590036 -0.7449292 0.03238407 -0.011729529 0.51944387 -0.18277572 -0.38389978 -0.039282534 0.752887 -0.8457146 0.08344307 -0.43197066 0.40323058 0.119918026 -0.34865865 0.24855018 0.28296676 0.32785457 -0.44322824 -0.64853966 0.10188225 0.3584462 0.2958175 0.3927197 0.23642448 -0.5187541 -0.83031386 0.5853668 -0.026824795 0.67828286 -0.34529775 0.021697545 -0.66600364 -0.0627355 0.1165687 0.21531692 -0.71256125 0.19629093 -0.30801654 0.029304035 0.15041173 -0.12923062 0.2644434 -0.23161489 0.38337824 -0.13458243 -0.14097974 -0.068361126 -0.28456926 0.15483096 0.41003367 0.11932006 -0.70895195 -0.24678168 -0.33564273 0.22394213 -0.31688952 -0.22492391 0.52409226 0.39278212 0.14479779 -0.07522076 -0.421423 -0.6108406 0.93051016 0.032876506 -0.47618476 0.4174716 0.051897064 0.8055313 -0.17239586 -0.30793893 -0.50457096 -0.17814629 0.034292754 -0.34303173 0.58073694 -0.046917867 -0.06293308
will 0.46758845 -0.14095323 0.19593354 -0.27974135 -0.4952674 0.3468594 0.088804 0.40991643 0.10215528 0.026144106 0.25069082 0.013470919 -0.24777588 0.67587245 0.5905466 0.45720434 0.97940296 -0.1793664 -0.18836758 0.28178248 0.2266329 0.010209498 0.27323332 -0.107075736 0.28230333 0.3607396 0.57528764 0.19500197 0.5979672 0.3739251 -0.31723702 0.5552919 -0.43279192 0.18795264 0.30688274 -0.18479788 -0.17114115 -0.22113524 0.4449397 -0.12512842 0.96417576 0.06304984 -0.39806712 0.009692002 0.5879788 -0.059142888 0.5578616 0.30647376 -0.09520798 -0.61113036 0.045780428 -0.020978777 0.43082076 -0.37493086 0.30100176 -0.5586942 0.21790637 0.30861813 0.43863747 -0.15304485 -0.1173739 -0.28837633 -0.32531768 0.6448478 -0.102774285 0.49622104 -0.1729545 0.004375338 -0.20343716 0.21405886 -0.021965504 0.10793128 -0.7042921 0.031746924 -0.008920797 0.4924659 -0.17349404 -0.36518922 -0.032502268 0.71163565 -0.79737586 0.083252504 -0.41207662 0.38273433 0.109112166 -0.33471924 0.23511797 0.26726934 0.30659643 -0.41989008 -0.6174962 0.09711932 0.34128696 0.28011405 0.37451887 0.22390819 -0.48824868 -0.7881075 0.55453587 -0.024829207 0.6436598 -0.33003128 0.016433708 -0.63334143 -0.06298425 0.11488448 0.2044196 -0.6757652 0.18538806 -0.28934452 0.032401834 0.14435756 -0.11821094 0.25142378 -0.2227556 0.36364928 -0.12351918 -0.1355746 -0.06330299 -0.26742268 0.15109944 0.38540992 0.10877747 -0.670845 -0.23861599 -0.31957558 0.20853409 -0.30061513 -0.2088499 0.49810472 0.37077937 0.1418677 -0.06871074 -0.40168136 -0.5817555 0.88421977 0.029422825 -0.45596534 0.39272022 0.05139978 0.7630011 -0.16389325 -0.292446 -0.47971824 -0.17339316 0.030054191 -0.32868713 0.55112165 -0.040063422 -0.05574606
as 0.59249383 -0.17821968 0.25153285 -0.3584878 -0.6339482 0.44188926 0.11382286 0.5230651 0.12978978 0.030874128 0.3163589 0.013340771 -0.31444097 0.86780113 0.7592318 0.57843924 1.2584194 -0.22549058 -0.23766644 0.36503467 0.2922891 0.0142412195 0.34291995 -0.14277565 0.36276376 0.45779926 0.7386058 0.24831232 0.76275855 0.4734006 -0.40814388 0.7099097 -0.5604144 0.24255812 0.39506423 -0.23255768 -0.216265 -0.28117523 0.5673939 -0.16202283 1.2376302 0.08137025 -0.5038334 0.009961171 0.7566066 -0.076882765 0.712682 0.39881784 -0.12170286 -0.7823148 0.05756869 -0.033871397 0.5470073 -0.48496675 0.38358226 -0.717384 0.27602887 0.38865116 0.56569123 -0.19181257 -0.15097073 -0.36810216 -0.41401038 0.82498306 -0.13239294 0.63274556 -0.22033745 0.0051442524 -0.26528436 0.27470624 -0.030750144 0.13559048 -0.90319395 0.04353523 -0.0125629185 0.6311266 -0.22172175 -0.46528608 -0.047734264 0.91465956 -1.0215176 0.104443 -0.520755 0.48722345 0.1450411 -0.42394984 0.30302393 0.34271666 0.3942267 -0.53857523 -0.78161836 0.12216755 0.43341565 0.36299726 0.48381346 0.29063973 -0.62834936 -1.0038736 0.71012235 -0.033256534 0.81913745 -0.4262293 0.019461883 -0.81569076 -0.07571864 0.13958876 0.26533765 -0.8621651 0.24083598 -0.37300593 0.03823319 0.18342598 -0.15777119 0.3189076 -0.28217506 0.46672907 -0.15675779 -0.16797645 -0.08494718 -0.33935785 0.1878193 0.49167043 0.13892758 -0.8613171 -0.30293113 -0.40872535 0.2651536 -0.37965927 -0.2701318 0.63672704 0.47622034 0.18228851 -0.090622045 -0.5100338 -0.7353471 1.1260343 0.03952791 -0.5824664 0.50190514 0.06623383 0.9810375 -0.2110652 -0.37696138 -0.60760844 -0.22221987 0.042131323 -0.42546728 0.70593196 -0.051473048 -0.07185786
one 0.5126166 -0.15290622 0.21891102 -0.30077025 -0.5416266 0.37982672 0.1000378 0.43988627 0.110114425 0.025136977 0.27225307 0.010127983 -0.2651942 0.73894536 0.64749724 0.49757245 1.0703675 -0.19484323 -0.20715101 0.30665913 0.25118154 0.011856356 0.2929055 -0.11870667 0.31371942 0.39507973 0.62750036 0.21175326 0.64890623 0.4028706 -0.3477592 0.6061226 -0.47638288 0.20887697 0.33824527 -0.20466967 -0.18518193 -0.2418349 0.48815283 -0.14364384 1.0488008 0.06912749 -0.4338034 0.010301623 0.6428636 -0.06707277 0.6095312 0.3367282 -0.101480104 -0.66352195 0.04681829 -0.024822576 0.4667451 -0.41123262 0.32264274 -0.6132552 0.23650825 0.33098742 0.48017 -0.16047713 -0.12452976 -0.31371886 -0.35174802 0.70815945 -0.11488175 0.5407436 -0.18721487 0.005169342 -0.22562124 0.23229101 -0.024949789 0.11695511 -0.77276754 0.037787456 -0.01133433 0.53893363 -0.18961307 -0.39556995 -0.039874498 0.77701396 -0.8732884 0.09117563 -0.44531327 0.4157667 0.11843804 -0.36718753 0.25912827 0.28894746 0.33688807 -0.4590236 -0.66877145 0.10151863 0.37106 0.30862164 0.40719458 0.25079495 -0.5312669 -0.85798067 0.60812575 -0.02603134 0.7002182 -0.36005658 0.017152295 -0.69793725 -0.06857579 0.124212615 0.22757162 -0.73982507 0.2054502 -0.3181244 0.035719525 0.15722865 -0.13165046 0.27193677 -0.24038504 0.39425105 -0.13527666 -0.1461297 -0.07453811 -0.29046616 0.1655295 0.4194103 0.116530545 -0.7321828 -0.25445423 -0.34886578 0.22584715 -0.32498246 -0.22960696 0.5416655 0.40635368 0.15513368 -0.07503834 -0.4347991 -0.6346402 0.96261597 0.02891954 -0.49621528 0.43012536 0.055264726 0.8393873 -0.17626163 -0.32170993 -0.5201824 -0.18820249 0.03287721 -0.3582903 0.6033805 -0.043817107 -0.059870165
now 0.4548054 -0.13205315 0.1891498 -0.2677718 -0.48087507 0.3346264 0.084739424 0.3926767 0.094288535 0.023191132 0.24248588 0.006718381 -0.23884833 0.65701926 0.57507586 0.4374289 0.95474476 -0.16990097 -0.18121259 0.2746286 0.22411087 0.011683162 0.25890058 -0.107877284 0.2781368 0.35220104 0.55679613 0.18551242 0.5747264 0.35971573 -0.31024483 0.53490794 -0.4250753 0.18263073 0.2978241 -0.18075804 -0.15974283 -0.21184616 0.4283745 -0.12326353 0.9338602 0.061109785 -0.38530758 0.0064707347 0.5721324 -0.05620195 0.54324734 0.2981868 -0.08684609 -0.5916903 0.04410634 -0.022331748 0.4151847 -0.36462036 0.29123622 -0.5433702 0.21274333 0.29878715 0.42350674 -0.14419784 -0.114002496 -0.28015292 -0.3149443 0.6273619 -0.10200244 0.4809747 -0.16566916 0.002397098 -0.20271939 0.20859316 -0.018642351 0.10149226 -0.6880836 0.03284844 -0.009631682 0.47810695 -0.1664248 -0.3495665 -0.035041485 0.6930297 -0.7779594 0.077040784 -0.39662296 0.37462813 0.10955654 -0.32100105 0.22865322 0.26114756 0.3028038 -0.40778977 -0.59547657 0.0921973 0.3276269 0.27487534 0.36344993 0.2169772 -0.47581917 -0.7648804 0.54062945 -0.023504823 0.62629116 -0.31754708 0.014017132 -0.61851317 -0.061847825 0.10637006 0.19800828 -0.6569903 0.18065675 -0.2797709 0.028001167 0.13638066 -0.11511815 0.24277411 -0.2121597 0.35181338 -0.121048056 -0.12768893 -0.06350664 -0.25542963 0.14305158 0.37135044 0.10492318 -0.6537475 -0.22738044 -0.31058428 0.20157886 -0.29080468 -0.20247787 0.48201078 0.36144546 0.13452546 -0.071392626 -0.38974044 -0.55961025 0.8527963 0.030963102 -0.43646163 0.38377512 0.0509894 0.7436776 -0.1595097 -0.28613368 -0.46296978 -0.16579407 0.030086007 -0.31810826 0.53818655 -0.040445685 -0.05385957
we 0.4549656 -0.13339569 0.19299598 -0.2727124 -0.4837979 0.33458072 0.09150705 0.39529368 0.09394472 0.027927328 0.23882245 0.008345635 -0.24120359 0.66126263 0.57771224 0.44287896 0.9585246 -0.17668776 -0.18564084 0.27317876 0.22452371 0.0066619175 0.26019627 -0.10372422 0.28132647 0.3518147 0.5610882 0.19157055 0.58117193 0.36076564 -0.31063604 0.54105777 -0.42549747 0.18437193 0.29641208 -0.18222766 -0.16204418 -0.21153171 0.43187797 -0.1268618 0.9416963 0.059144612 -0.3884884 0.008598708 0.5752111 -0.061264507 0.54329515 0.3044239 -0.0919918 -0.5958933 0.042710423 -0.02253505 0.417355 -0.37101272 0.29154074 -0.5487869 0.21411218 0.297263 0.42952836 -0.14584689 -0.112943776 -0.28287297 -0.31829837 0.63090116 -0.099655345 0.48133302 -0.17048365 0.0023704134 -0.20009285 0.20644338 -0.019152837 0.108327076 -0.6942048 0.029022798 -0.006487161 0.48170382 -0.17224348 -0.3526655 -0.034608163 0.69994205 -0.7840602 0.07816808 -0.40018877 0.37508258 0.111087434 -0.3282405 0.2333885 0.26266494 0.3001941 -0.41121033 -0.6045164 0.09524516 0.33523494 0.27253047 0.37057123 0.2206776 -0.4788864 -0.772665 0.5421019 -0.024956737 0.6248753 -0.3243915 0.017104294 -0.6203705 -0.05886383 0.112374164 0.20401074 -0.6590587 0.18425226 -0.28306508 0.026791867 0.14299811 -0.11469452 0.24292958 -0.2122716 0.3573588 -0.11907446 -0.12739085 -0.061726194 -0.2606945 0.14894271 0.37590966 0.10817336 -0.65974796 -0.23189877 -0.30858985 0.2053452 -0.29778957 -0.20728895 0.4877141 0.36356017 0.13963743 -0.07145218 -0.39029267 -0.5651504 0.8627043 0.030335734 -0.4430704 0.3884507 0.051567573 0.75129867 -0.15773895 -0.28354582 -0.46815953 -0.17147617 0.027301162 -0.32417065 0.5410284 -0.04156931 -0.056657415
or 0.51722974 -0.15099806 0.22323976 -0.3105255 -0.5483144 0.38592896 0.10116635 0.45404795 0.107214145 0.025388125 0.2726352 0.013121117 -0.2715508 0.7527726 0.65918666 0.5019771 1.0878197 -0.19826116 -0.20968054 0.31630927 0.25552106 0.011224614 0.2993287 -0.122284584 0.31521815 0.39942068 0.6398468 0.21286468 0.6658366 0.41591987 -0.35375118 0.6178925 -0.48046672 0.21234456 0.3413217 -0.20410399 -0.18812034 -0.24187267 0.49659932 -0.1414712 1.0707251 0.067834094 -0.44003972 0.014311058 0.65593165 -0.0658013 0.6234604 0.34625602 -0.101724945 -0.68013436 0.04649788 -0.025390903 0.4773908 -0.42109558 0.33198035 -0.62389547 0.23990661 0.33776772 0.48842654 -0.16880678 -0.12957974 -0.32239482 -0.35693282 0.71650213 -0.11476344 0.5479144 -0.18827055 0.0034631973 -0.22999899 0.2367455 -0.02113208 0.11798385 -0.7892404 0.03822524 -0.006502488 0.5495464 -0.19152804 -0.40721214 -0.037604507 0.7932358 -0.89308256 0.08691071 -0.452655 0.4259728 0.12450248 -0.37316543 0.26097238 0.29379642 0.34525606 -0.47313336 -0.68315274 0.105901524 0.37832284 0.31549624 0.417062 0.25527987 -0.546548 -0.8775098 0.6140388 -0.02501488 0.7165245 -0.36466485 0.016988464 -0.71044636 -0.071805224 0.12208555 0.22710256 -0.7488366 0.20745279 -0.32476726 0.031173253 0.15730324 -0.13808894 0.27935147 -0.24855396 0.40560326 -0.138734 -0.14747742 -0.07476639 -0.2992321 0.16555844 0.42792314 0.12217481 -0.7508406 -0.2606928 -0.35561752 0.23372917 -0.33622625 -0.23787959 0.55188483 0.41344664 0.15456668 -0.07974093 -0.44372642 -0.6419677 0.9794059 0.03535384 -0.50687134 0.4376346 0.052120566 0.8548134 -0.1834018 -0.32640547 -0.52937645 -0.19135216 0.03356917 -0.36700344 0.6132583 -0.04677865 -0.06739136
do 0.38226402 -0.11462629 0.16443288 -0.23081572 -0.40961847 0.28674626 0.07071062 0.33563107 0.081401974 0.021751018 0.2079742 0.006830747 -0.19853373 0.5579716 0.4919334 0.37609825 0.81474084 -0.146719 -0.15292384 0.23069486 0.1856579 0.0060250224 0.22219244 -0.08677404 0.23712835 0.29872823 0.47436902 0.1571357 0.48944232 0.30984536 -0.26151848 0.4608348 -0.3560321 0.15952027 0.25569502 -0.15269831 -0.14175299 -0.18151194 0.370453 -0.104889356 0.7953578 0.05210097 -0.3294595 0.010830067 0.49028572 -0.049095813 0.46124846 0.25401583 -0.074843116 -0.50490403 0.034708846 -0.0179876 0.35474563 -0.30849874 0.2504768 -0.46363714 0.18218942 0.2544725 0.36188343 -0.12682849 -0.09511799 -0.23971738 -0.2680513 0.5306169 -0.086087674 0.4100917 -0.14420393 -0.0017546557 -0.17281725 0.1738329 -0.01892174 0.088165164 -0.5830729 0.02525069 -0.009838373 0.408802 -0.14511397 -0.29814467 -0.028443838 0.5883297 -0.6604206 0.06795096 -0.33978218 0.3154004 0.09097955 -0.2755928 0.1922635 0.22373684 0.25435388 -0.35179487 -0.50885844 0.07574143 0.2788751 0.22983263 0.30781418 0.18934205 -0.40712586 -0.6532143 0.45794132 -0.01772683 0.53223366 -0.2702666 0.013848025 -0.52309287 -0.04870234 0.092545286 0.17040627 -0.55759704 0.1505386 -0.23873301 0.021983666 0.114039496 -0.1028711 0.20789978 -0.1841408 0.30189115 -0.10478905 -0.11309322 -0.053964004 -0.22405744 0.12547901 0.32134214 0.09102114 -0.5569414 -0.19450843 -0.25882074 0.1700395 -0.25123316 -0.17670542 0.41006455 0.30816007 0.113814555 -0.060091894 -0.3295717 -0.4763327 0.72902685 0.02313418 -0.37419346 0.32301763 0.04307417 0.6352133 -0.13765392 -0.2439171 -0.39410633 -0.1425945 0.024627334 -0.2693918 0.45228076 -0.03792286 -0.0466188
know 0.40874887 -0.11899344 0.17118181 -0.24142867 -0.43406057 0.3025325 0.074026614 0.357707 0.08797406 0.019249195 0.21363801 0.005467826 -0.21378751 0.58760893 0.51776475 0.39447963 0.8552005 -0.15439695 -0.16428901 0.24603602 0.19788285 0.010470366 0.23971017 -0.093797274 0.25044027 0.31765592 0.5055923 0.16724804 0.5203683 0.32361236 -0.27713716 0.48459852 -0.38118255 0.16517746 0.27041796 -0.16053267 -0.1437339 -0.19473337 0.38855484 -0.107901484 0.84601885 0.057807952 -0.34918863 0.0061707865 0.51737636 -0.05221776 0.48809838 0.26981375 -0.08283599 -0.53479075 0.034922894 -0.019720698 0.37166247 -0.332909 0.25992942 -0.48854896 0.18979278 0.2652081 0.38791868 -0.1308674 -0.10547615 -0.25062382 -0.27992216 0.56802917 -0.090583436 0.43045938 -0.14953414 0.0034721561 -0.17841786 0.1871891 -0.019960081 0.09444686 -0.61683154 0.026639586 -0.008900256 0.43149272 -0.15320747 -0.3171611 -0.03245194 0.62238485 -0.70242196 0.07019013 -0.3584316 0.33677244 0.09671665 -0.29300594 0.20914511 0.23483945 0.2680125 -0.3691382 -0.5360352 0.080745675 0.29916665 0.24401045 0.32508636 0.19774534 -0.4295538 -0.68897283 0.4835803 -0.024091389 0.55908686 -0.2899588 0.01561031 -0.55434775 -0.05435816 0.09929148 0.17794128 -0.59437245 0.1663492 -0.25115713 0.029492775 0.12436763 -0.10966933 0.21935908 -0.1957054 0.31804916 -0.11092481 -0.1202852 -0.057182677 -0.23171195 0.12902844 0.33649042 0.09297993 -0.5900892 -0.20722538 -0.27431795 0.18279691 -0.2591757 -0.18677817 0.43169174 0.32170293 0.11904911 -0.065456286 -0.35245407 -0.5082297 0.77272826 0.028515013 -0.4003089 0.34526283 0.04177909 0.6667034 -0.14140718 -0.25614157 -0.41364083 -0.14887868 0.026828237 -0.2903855 0.48387873 -0.0390269 -0.054131962
about 0.5455027 -0.16184156 0.22973576 -0.32194403 -0.58100843 0.40439075 0.102581725 0.47559252 0.11901811 0.028545188 0.2872793 0.013897023 -0.28604645 0.7949366 0.69238114 0.5278429 1.147845 -0.21159415 -0.22310024 0.33043712 0.26467368 0.010022429 0.31688964 -0.12440596 0.33471945 0.422429 0.67423534 0.22852874 0.697132 0.43247205 -0.36895138 0.6490448 -0.51125926 0.22200812 0.3570723 -0.21299124 -0.19449386 -0.2590651 0.52194506 -0.15211129 1.1276194 0.07628984 -0.4638124 0.011401519 0.6854372 -0.072758265 0.65535885 0.3631183 -0.10845536 -0.71274686 0.049955197 -0.031068511 0.4966907 -0.44256586 0.34829822 -0.6506628 0.25282958 0.358875 0.5126473 -0.17281696 -0.13547069 -0.3355004 -0.3746396 0.74969655 -0.11864813 0.5732195 -0.19720742 0.0021628255 -0.24424253 0.24914905 -0.02742853 0.12701364 -0.829006 0.03838815 -0.0104727065 0.5773917 -0.20592587 -0.4284497 -0.04361087 0.8332844 -0.93247724 0.09644921 -0.48027387 0.4498479 0.13332185 -0.38829848 0.27266586 0.31266773 0.3612427 -0.49482638 -0.7189086 0.11186017 0.3953101 0.33005407 0.43732372 0.2623048 -0.5736663 -0.9187296 0.649297 -0.024302362 0.75020504 -0.3867482 0.023084676 -0.7438227 -0.071562245 0.13163394 0.23782837 -0.78559303 0.21630514 -0.33941442 0.038398158 0.16428714 -0.14398338 0.29202503 -0.25704393 0.42283753 -0.14351824 -0.15578786 -0.077072844 -0.31009668 0.17431222 0.45424485 0.12953778 -0.7849461 -0.27578878 -0.37216115 0.24312674 -0.3504602 -0.24299435 0.57886976 0.43282717 0.16282359 -0.08029008 -0.4638445 -0.6770623 1.0293763 0.036904342 -0.5290514 0.45836452 0.055501424 0.89257586 -0.19005272 -0.34302703 -0.5581717 -0.20212689 0.03835559 -0.3880893 0.64133406 -0.0507172 -0.06433905
dont 0.45101047 -0.13030368 0.19304979 -0.2693725 -0.47656378 0.33842736 0.083977975 0.39504525 0.095931634 0.024878535 0.23685326 0.0077998266 -0.23672822 0.65429306 0.57395726 0.43824995 0.9515927 -0.17450099 -0.18207575 0.27407914 0.21663085 0.014080849 0.2603559 -0.10276041 0.27860957 0.34640568 0.5550303 0.18538865 0.57984185 0.35960442 -0.3054276 0.53965074 -0.41903177 0.18217145 0.29531506 -0.18120249 -0.1651262 -0.2156321 0.4311676 -0.1256658 0.93638146 0.06254372 -0.38189438 0.012042417 0.5728493 -0.05924504 0.5385311 0.29973444 -0.0910564 -0.59314346 0.0447665 -0.02560238 0.41314304 -0.36204123 0.2906246 -0.54184544 0.2126545 0.3002546 0.42562515 -0.1458966 -0.11583885 -0.27988607 -0.31076923 0.62412554 -0.097735986 0.47490114 -0.16575241 0.0041357884 -0.20306732 0.20282798 -0.02294898 0.100473315 -0.6838634 0.03449889 -0.0057027987 0.47664216 -0.16896413 -0.34985167 -0.032067772 0.6938416 -0.77386445 0.077556394 -0.39841223 0.36970353 0.10866766 -0.32358995 0.22512871 0.25754613 0.29753578 -0.409791 -0.593679 0.09282516 0.3319503 0.2740728 0.365109 0.22022887 -0.47633722 -0.7624945 0.5333342 -0.026203847 0.62447417 -0.31752017 0.0140312705 -0.6181477 -0.061365537 0.10683448 0.19801714 -0.6547031 0.17817225 -0.28186104 0.02615416 0.135153 -0.116765246 0.24122739 -0.2145814 0.35162437 -0.11901844 -0.13145174 -0.060524598 -0.2567901 0.14378805 0.37728935 0.10411628 -0.65249914 -0.22576351 -0.30468723 0.20155022 -0.28813547 -0.20343621 0.47636494 0.35866722 0.13469176 -0.06789301 -0.3849002 -0.5562735 0.8547983 0.030033793 -0.44229698 0.37822014 0.047448926 0.7380603 -0.16013716 -0.28221402 -0.46281824 -0.16357303 0.032698855 -0.3182594 0.53365433 -0.038090955 -0.05810497
can 0.4612573 -0.13879907 0.19226955 -0.2723783 -0.48897037 0.33934647 0.09090971 0.40103975 0.10040493 0.028296774 0.24414375 0.0072212555 -0.2421115 0.6684211 0.58671075 0.44820645 0.9697903 -0.17455256 -0.19062033 0.2828454 0.22189733 0.014333419 0.26560518 -0.109727174 0.28290927 0.3531308 0.56888413 0.18792695 0.5918332 0.36746788 -0.31505004 0.55243176 -0.4283568 0.18446828 0.3058912 -0.18348311 -0.16662289 -0.2154056 0.43738884 -0.12645315 0.9509826 0.060620233 -0.38984537 0.006243667 0.5850805 -0.060923573 0.5550126 0.30819607 -0.093446836 -0.5992823 0.04569517 -0.028540239 0.42394152 -0.3722021 0.29726797 -0.5486278 0.2190021 0.30402395 0.43261495 -0.14912707 -0.11732468 -0.28618047 -0.3157198 0.63937247 -0.09952412 0.48356798 -0.16942893 0.00030543708 -0.20656314 0.21351168 -0.021511935 0.10300384 -0.7028481 0.02981249 -0.0070580817 0.49145257 -0.17142834 -0.36098087 -0.033131056 0.7078907 -0.7945026 0.077948675 -0.40709725 0.37929952 0.1088966 -0.32894188 0.22912802 0.26706868 0.304646 -0.4219772 -0.61004376 0.094459854 0.3333817 0.28106293 0.37507895 0.22361515 -0.48598197 -0.7767393 0.550239 -0.021655759 0.6321619 -0.32412526 0.015084767 -0.63140965 -0.0583204 0.10798972 0.20069137 -0.6702479 0.18541408 -0.2897029 0.03008107 0.1386232 -0.12307816 0.2494529 -0.21736415 0.35991007 -0.12630473 -0.12971929 -0.06194595 -0.26795718 0.14883736 0.38355538 0.10785932 -0.66698766 -0.23695986 -0.31590053 0.2094191 -0.29828873 -0.21032995 0.48988265 0.36799294 0.14104232 -0.07209137 -0.39405787 -0.57092136 0.87367696 0.032006655 -0.4513877 0.39253107 0.05256648 0.75621593 -0.16464107 -0.2870927 -0.47077572 -0.16830342 0.029765345 -0.32328686 0.54218006 -0.042953704 -0.0589114
go 0.49619418 -0.15025601 0.20857933 -0.2978824 -0.52543753 0.3643943 0.097617485 0.4340267 0.10207996 0.029798599 0.26473203 0.007399157 -0.26211175 0.7198719 0.6304983 0.48238352 1.0449824 -0.1885447 -0.20379382 0.30106887 0.24322416 0.0092902975 0.28760722 -0.11436373 0.30430472 0.3861904 0.6122985 0.20416354 0.6353477 0.39582357 -0.33552453 0.5912753 -0.46601883 0.19842501 0.3292038 -0.19509304 -0.17804712 -0.23490033 0.47407368 -0.13539086 1.0273118 0.06676974 -0.41772357 0.011791619 0.62700254 -0.06260626 0.59202474 0.32804573 -0.09694707 -0.6515419 0.044470824 -0.02540406 0.45722544 -0.39885345 0.31733355 -0.5959079 0.23569849 0.32386374 0.46505338 -0.16015472 -0.12548006 -0.3079156 -0.3435602 0.6856822 -0.10943123 0.5277578 -0.18314114 0.0003717323 -0.22127096 0.2234515 -0.020210586 0.11224557 -0.7546581 0.033764828 -0.012039934 0.524825 -0.18746147 -0.3889186 -0.03737601 0.7613895 -0.84881055 0.088948674 -0.43209854 0.40884843 0.11748108 -0.35361248 0.25257027 0.28644767 0.3260705 -0.44668826 -0.6509464 0.098272815 0.36082742 0.2982511 0.40342095 0.24355812 -0.520464 -0.83508956 0.59134316 -0.02225877 0.68319756 -0.35522488 0.01893046 -0.6752927 -0.06516634 0.122492485 0.22036731 -0.7215425 0.2014222 -0.30523467 0.03053314 0.14861575 -0.13168539 0.2670875 -0.23249653 0.38961312 -0.13377093 -0.14091554 -0.07335271 -0.2832117 0.16144933 0.412004 0.11790261 -0.7187936 -0.25313425 -0.33479482 0.22520545 -0.32175735 -0.22358829 0.52614826 0.3965479 0.15000151 -0.07750223 -0.42700014 -0.6126598 0.93911195 0.028657809 -0.4805518 0.41687307 0.05628589 0.8142644 -0.1763564 -0.31551883 -0.50830686 -0.18073641 0.03322353 -0.35255313 0.5875291 -0.04379329 -0.059002306
love 0.4036631 -0.12089025 0.17172904 -0.24133556 -0.4343993 0.30547822 0.078391 0.35234767 0.087724976 0.024150588 0.21608482 0.0092884675 -0.21613438 0.5899133 0.519498 0.39723554 0.85615045 -0.15827319 -0.16433854 0.24735339 0.20069967 0.0075692586 0.235051 -0.097812556 0.24868615 0.31321993 0.5016266 0.17107262 0.51949567 0.32236272 -0.27589068 0.48917767 -0.38083205 0.16319898 0.26607978 -0.15973735 -0.14785242 -0.19378108 0.39174417 -0.10949084 0.8394703 0.057547927 -0.34607998 0.0077314875 0.51232165 -0.05164132 0.48623765 0.26666287 -0.07857968 -0.5285292 0.039661195 -0.020270368 0.37605804 -0.3327396 0.2635427 -0.4867302 0.18930712 0.26774538 0.3818728 -0.12829426 -0.1046024 -0.24739416 -0.28502554 0.56479615 -0.08999925 0.42770848 -0.14755799 0.0014097815 -0.1793356 0.18552618 -0.01788928 0.09443993 -0.6220229 0.025218753 -0.0050262283 0.43332618 -0.15043359 -0.3177332 -0.02873603 0.62128246 -0.70250106 0.073582344 -0.35983652 0.33249807 0.0955814 -0.29257834 0.20634498 0.23714815 0.27238345 -0.36662763 -0.53798115 0.08009034 0.2980616 0.2430128 0.32803762 0.19760346 -0.42796823 -0.6922517 0.4813538 -0.024126362 0.56102896 -0.28923774 0.018057564 -0.5537581 -0.05156508 0.1011241 0.18245852 -0.5886416 0.16498032 -0.2526315 0.022999479 0.121042825 -0.10427032 0.21739376 -0.1953783 0.31622016 -0.11183349 -0.11766651 -0.057226453 -0.23692305 0.13146886 0.33660302 0.0970508 -0.5914644 -0.20736532 -0.2792305 0.18361141 -0.26235348 -0.18758371 0.42991066 0.3237346 0.119898446 -0.06426694 -0.3518139 -0.5053833 0.76822597 0.023852251 -0.39798746 0.34400594 0.046546835 0.66951174 -0.14586501 -0.25312147 -0.41937658 -0.15113163 0.028749526 -0.28393355 0.4825615 -0.035899416 -0.04728688
from 0.54513997 -0.15859187 0.23453821 -0.32969677 -0.5800996 0.40775877 0.10461143 0.4755306 0.116099745 0.02910049 0.2926129 0.01038557 -0.28875208 0.7952061 0.6946046 0.52998793 1.1541194 -0.20767336 -0.22543773 0.33248872 0.26734594 0.009723837 0.31746334 -0.12937002 0.33842924 0.42231268 0.67727286 0.2288134 0.70067865 0.43627822 -0.37602496 0.6564977 -0.5097283 0.22152178 0.36516127 -0.21872263 -0.19944656 -0.26197812 0.5240281 -0.15110287 1.1335844 0.074725114 -0.46209094 0.009841932 0.6903289 -0.07363886 0.65554214 0.3622884 -0.11080523 -0.7150542 0.047958717 -0.026600415 0.50487703 -0.44489253 0.35337204 -0.65616083 0.25917765 0.3611194 0.51761836 -0.17817086 -0.13905653 -0.33585584 -0.3786984 0.76277626 -0.123231836 0.5811338 -0.20297387 0.0040279636 -0.24418503 0.25379965 -0.025687585 0.12701447 -0.8317982 0.042066704 -0.010013038 0.5835899 -0.2060275 -0.4279602 -0.03981421 0.84126985 -0.94120467 0.09630372 -0.48021436 0.44912115 0.12908219 -0.38881043 0.2780264 0.3137118 0.3633411 -0.49546236 -0.7258274 0.11073369 0.403472 0.32804736 0.44038963 0.2705966 -0.5788043 -0.92909354 0.6509958 -0.026963368 0.75287 -0.3922255 0.017644888 -0.7482197 -0.07413355 0.13403516 0.24097456 -0.7923139 0.22078975 -0.3409152 0.03653646 0.16588289 -0.14499488 0.29393533 -0.25968078 0.42534807 -0.14624827 -0.15479317 -0.079966374 -0.31445378 0.17918777 0.4541067 0.1319959 -0.7902448 -0.27774546 -0.37613627 0.24850987 -0.35258257 -0.24559563 0.58258164 0.43811315 0.16118251 -0.08632254 -0.47171703 -0.6791601 1.0376196 0.03458218 -0.5311693 0.46096477 0.060039423 0.89852756 -0.19173975 -0.3453091 -0.56092125 -0.2060514 0.03527088 -0.389914 0.6477111 -0.04883954 -0.070727855
time 0.42824867 -0.12688768 0.18154101 -0.25968924 -0.45515755 0.32265115 0.08142606 0.37890145 0.08829703 0.025466371 0.23108801 0.012131401 -0.22829239 0.6245513 0.5439443 0.42029083 0.90827954 -0.16299665 -0.17192586 0.2591947 0.21166302 0.009408114 0.24676737 -0.1010469 0.26625827 0.33474255 0.53116506 0.17744324 0.5498853 0.34546283 -0.29091734 0.5166906 -0.40493995 0.17349066 0.28648385 -0.17315352 -0.15625352 -0.20480639 0.41098982 -0.12215827 0.8891445 0.056648783 -0.36743644 0.006431533 0.548085 -0.056059506 0.51681006 0.28483954 -0.0824557 -0.56391513 0.043334555 -0.020782499 0.39843816 -0.35249606 0.27419475 -0.5193771 0.205905 0.28686973 0.4106443 -0.13736172 -0.10760473 -0.2677049 -0.29612786 0.6007025 -0.09739952 0.45865634 -0.15793173 0.0018019782 -0.19260573 0.19883496 -0.02131012 0.09806014 -0.6574691 0.03193847 -0.010256741 0.45809877 -0.15983748 -0.33769482 -0.035632577 0.66361946 -0.73768103 0.07237027 -0.37605733 0.3516905 0.10002361 -0.30524406 0.21673433 0.24656026 0.2865549 -0.39131668 -0.57044405 0.08909456 0.31169143 0.26251328 0.3486445 0.21126343 -0.4552891 -0.72640973 0.514128 -0.022775462 0.5930614 -0.30540523 0.018493474 -0.589886 -0.060095794 0.10593197 0.1869163 -0.62435216 0.16933265 -0.26905772 0.024953954 0.13210778 -0.10964683 0.22923702 -0.20549579 0.3394092 -0.1178087 -0.12155162 -0.06317726 -0.24711537 0.13763273 0.35902703 0.101919785 -0.6201799 -0.21908408 -0.29151624 0.19677502 -0.2787735 -0.1921697 0.45557868 0.3420912 0.12924659 -0.06327728 -0.36827427 -0.53322846 0.81446373 0.030080087 -0.4158327 0.361809 0.043184053 0.7069585 -0.15312864 -0.2692989 -0.44221938 -0.16050285 0.029382879 -0.3043157 0.51365817 -0.04310893 -0.054036144
am 0.42573124 -0.12632595 0.17882702 -0.2516968 -0.4471301 0.31599438 0.08073291 0.36912915 0.090670966 0.019757925 0.22188866 0.009310709 -0.21964845 0.6129548 0.53674465 0.40878025 0.89327747 -0.16467622 -0.17235601 0.2537645 0.20799783 0.012447211 0.24507192 -0.09454988 0.2575002 0.3299086 0.52153534 0.17659064 0.5408744 0.33905026 -0.2867015 0.50627863 -0.39438272 0.1741447 0.27630278 -0.16555959 -0.15034002 -0.19708045 0.40264758 -0.11713106 0.8766062 0.055302083 -0.3583252 0.012175215 0.53460145 -0.052844066 0.5088167 0.27959195 -0.08541124 -0.5505459 0.03642818 -0.019025253 0.38727 -0.34602642 0.27415934 -0.50776565 0.19976439 0.27526847 0.40095317 -0.13719644 -0.108134314 -0.26229954 -0.29000056 0.5872432 -0.09411279 0.45085093 -0.15489417 0.0026972233 -0.18602225 0.19137043 -0.017971627 0.09847035 -0.64614886 0.031597313 -0.011018254 0.4473812 -0.15578572 -0.33095825 -0.030129712 0.650322 -0.72781 0.06953115 -0.37343627 0.34879434 0.098084666 -0.30566445 0.21350743 0.24379359 0.2786637 -0.38312474 -0.5602813 0.086068064 0.30883405 0.25304523 0.3413811 0.20825464 -0.44110546 -0.7158147 0.50214344 -0.023127962 0.5863347 -0.3005722 0.014136653 -0.57558066 -0.058342516 0.10003374 0.1892933 -0.61201406 0.17030697 -0.2619109 0.030041885 0.12625681 -0.111050874 0.22530001 -0.2002482 0.3293707 -0.111119315 -0.12258918 -0.061383996 -0.24542321 0.13708432 0.34921306 0.10256162 -0.60990953 -0.21623725 -0.28553563 0.19189672 -0.27461654 -0.1904267 0.45327693 0.3370044 0.124874346 -0.06493328 -0.35934988 -0.52664655 0.798667 0.027136812 -0.41358742 0.35620847 0.044997558 0.69472194 -0.15190634 -0.26653683 -0.4296719 -0.15476175 0.026181312 -0.29934862 0.50313157 -0.036162283 -0.05624292
going 0.3880911 -0.11935566 0.16803403 -0.23441176 -0.41663274 0.2857084 0.07483377 0.34378508 0.085243195 0.018285437 0.2104904 0.007195555 -0.20668979 0.5679537 0.49368504 0.3805301 0.824474 -0.14638875 -0.15613984 0.23769207 0.19350728 0.009683593 0.2219486 -0.0938665 0.24021937 0.30481815 0.48427355 0.16524328 0.49569207 0.30966178 -0.26274785 0.46305242 -0.3624692 0.1591225 0.25982216 -0.15286472 -0.14437388 -0.18368289 0.37457258 -0.111181185 0.80929756 0.05294175 -0.3292036 0.01111378 0.49154347 -0.05255303 0.46572754 0.2550232 -0.0755922 -0.5118802 0.037155267 -0.019833561 0.36147347 -0.31923085 0.25085586 -0.46547017 0.18621613 0.25440478 0.37107044 -0.12895632 -0.09451073 -0.24252541 -0.27138042 0.5433258 -0.085634775 0.41014042 -0.1451708 0.0007053012 -0.17585525 0.17703982 -0.015473059 0.0877626 -0.59472376 0.027272169 -0.006466855 0.4137284 -0.14557432 -0.30698884 -0.026804525 0.59762526 -0.67301863 0.064480744 -0.33991748 0.32119188 0.0923747 -0.2819917 0.19885163 0.22033069 0.2584564 -0.35476163 -0.5141267 0.07737154 0.28195652 0.23394188 0.31844413 0.18623026 -0.41171008 -0.6586034 0.46583757 -0.017201377 0.5379626 -0.27493122 0.014329038 -0.53578955 -0.055084344 0.09544209 0.1724548 -0.56764936 0.15427685 -0.24056238 0.025486227 0.118991934 -0.10451314 0.2073346 -0.1814073 0.3036909 -0.10262429 -0.11084838 -0.056862574 -0.22767156 0.12759952 0.3264675 0.09580873 -0.56638825 -0.19452333 -0.26416036 0.17608067 -0.25083703 -0.17776482 0.41626814 0.31195268 0.119142674 -0.060494065 -0.3323527 -0.48718825 0.73675203 0.020020027 -0.38241643 0.33276337 0.039746173 0.6431513 -0.13815817 -0.24583416 -0.3978041 -0.14153583 0.027700894 -0.27422065 0.46570548 -0.03935373 -0.045436807
some 0.50298935 -0.15018627 0.21227144 -0.296474 -0.53723997 0.37304875 0.099519014 0.43453202 0.10336565 0.028065423 0.26392558 0.014614235 -0.2640753 0.7274325 0.63588256 0.48643777 1.0546228 -0.19148493 -0.20213336 0.30676135 0.2462966 0.014194968 0.29243502 -0.11569318 0.30557922 0.3912746 0.6177671 0.20818256 0.6403146 0.39996085 -0.34268785 0.5990681 -0.4707199 0.20369986 0.3291226 -0.2016901 -0.17928469 -0.23556398 0.47995922 -0.13715564 1.0420783 0.068423636 -0.42386082 0.012943031 0.63697904 -0.065762654 0.6016855 0.33076343 -0.09950088 -0.65434134 0.049996182 -0.027483212 0.4614278 -0.4087747 0.32214028 -0.6061167 0.23630331 0.3318617 0.47374612 -0.16355006 -0.12749755 -0.30688822 -0.34982046 0.69287926 -0.10931394 0.5341051 -0.18618092 0.0006627362 -0.22339727 0.22817966 -0.024373237 0.11233272 -0.7624334 0.039243314 -0.01376492 0.533376 -0.18802631 -0.39279103 -0.03660036 0.7702754 -0.8625804 0.08512709 -0.44378906 0.4114073 0.11848453 -0.35635474 0.2512289 0.28717932 0.33319977 -0.4561659 -0.6606597 0.10480872 0.3700549 0.30458853 0.40832728 0.24672669 -0.52583057 -0.8471637 0.5992306 -0.027150108 0.6937082 -0.36033788 0.021113068 -0.6838526 -0.06897417 0.12355892 0.2183606 -0.7253883 0.20024711 -0.31552526 0.03343972 0.15294042 -0.12862335 0.26537293 -0.23880877 0.39416254 -0.1360438 -0.14601742 -0.07410119 -0.28820056 0.1622073 0.41864097 0.11591646 -0.72837144 -0.25508782 -0.33922452 0.22721684 -0.3261842 -0.22997786 0.5325518 0.40125066 0.14807019 -0.07478369 -0.4283964 -0.6196474 0.95043886 0.032441035 -0.48438722 0.42516488 0.056328587 0.8279405 -0.17703183 -0.31395593 -0.5167544 -0.18763617 0.032143198 -0.35373765 0.5915216 -0.046756808 -0.06512923
no 0.51397383 -0.15450433 0.2167553 -0.3072369 -0.54726166 0.38064834 0.09667726 0.4455581 0.11253913 0.027209489 0.2697203 0.012364822 -0.27046323 0.7459006 0.65616405 0.49695727 1.0836914 -0.19598567 -0.21154214 0.3141601 0.2515267 0.014560047 0.2980463 -0.12245859 0.31510526 0.3966196 0.63566315 0.21305794 0.6584806 0.41085067 -0.34992275 0.6119468 -0.4782402 0.21278496 0.33755195 -0.20092878 -0.18844895 -0.24086963 0.48797965 -0.14276609 1.0649977 0.07304267 -0.43844065 0.013849028 0.6494888 -0.068508044 0.6169896 0.3386706 -0.10526579 -0.6716631 0.050227314 -0.029235987 0.46920714 -0.41498584 0.32640842 -0.61551696 0.2398794 0.3373254 0.485279 -0.16292505 -0.12714069 -0.3168703 -0.35548866 0.7129257 -0.11383162 0.54124665 -0.18822375 0.0012292297 -0.2303407 0.23512544 -0.026088571 0.12072929 -0.7836667 0.040000558 -0.012247496 0.54857373 -0.19286965 -0.4054569 -0.035180803 0.78739643 -0.88000214 0.09275974 -0.44805536 0.41921777 0.12296719 -0.37001973 0.2565172 0.29489633 0.34178132 -0.46752065 -0.6814952 0.10646116 0.3744805 0.31064084 0.41409573 0.24913734 -0.5438173 -0.87051386 0.60991675 -0.022414055 0.70666176 -0.36735517 0.021758996 -0.702788 -0.06902542 0.12523347 0.22465768 -0.7451933 0.20289324 -0.3198081 0.03160034 0.15597956 -0.13096887 0.2777884 -0.24065287 0.39880934 -0.13373093 -0.14719151 -0.07113023 -0.2979969 0.16606961 0.42348224 0.11806525 -0.7410926 -0.25654382 -0.35293698 0.2336825 -0.32869604 -0.23630965 0.5442198 0.40908355 0.15550154 -0.075830035 -0.44328767 -0.6397357 0.97380215 0.035616115 -0.49810296 0.43739405 0.05574534 0.8428607 -0.17837287 -0.32632214 -0.52227396 -0.19153218 0.032051153 -0.3651302 0.6086772 -0.04500986 -0.06683549
got 0.47067246 -0.13796535 0.20121889 -0.2802184 -0.49772003 0.34930307 0.093049005 0.40701196 0.098444 0.024854643 0.2493857 0.01042372 -0.24368356 0.6866182 0.5986645 0.45924315 0.99326783 -0.18091373 -0.19074279 0.28401324 0.23030783 0.0114195775 0.27102798 -0.108619615 0.29025003 0.36358246 0.582278 0.19462018 0.6005132 0.37819526 -0.32276383 0.562044 -0.44374785 0.19429234 0.31353784 -0.19016945 -0.16611437 -0.22515269 0.45158866 -0.12914032 0.97961783 0.06668818 -0.39766297 0.0070185508 0.59638333 -0.057338584 0.5656238 0.3108205 -0.094372906 -0.61520094 0.044427857 -0.026209742 0.4320469 -0.38229662 0.30435297 -0.56504166 0.22406796 0.3082965 0.44710633 -0.15291014 -0.12124893 -0.29370844 -0.32387185 0.6540804 -0.10500455 0.49574453 -0.1765131 0.004968432 -0.21042457 0.21595453 -0.023655854 0.10970658 -0.7150053 0.032644007 -0.009605621 0.503638 -0.17758754 -0.36624002 -0.034095556 0.72545546 -0.8075495 0.07923359 -0.41458875 0.38712373 0.11129735 -0.3380984 0.24042468 0.27159157 0.31366056 -0.42561367 -0.62297815 0.09942853 0.34691185 0.28381613 0.3830323 0.22727194 -0.49601266 -0.8013678 0.56014603 -0.025994211 0.6502043 -0.33775184 0.020504339 -0.64527744 -0.064219914 0.11717994 0.20746784 -0.6827749 0.18951279 -0.29284963 0.032354485 0.1452213 -0.12570043 0.25509796 -0.22140227 0.36412024 -0.12720059 -0.13153979 -0.06639068 -0.26931158 0.15201302 0.38923427 0.1116568 -0.68071383 -0.23969266 -0.3212077 0.21257666 -0.3018772 -0.21662837 0.4976809 0.37609014 0.13811255 -0.06890815 -0.4035842 -0.5844036 0.89461285 0.029782332 -0.4613561 0.39506823 0.05384027 0.7749353 -0.16666776 -0.29648057 -0.48469 -0.17644694 0.03156497 -0.33272848 0.5585784 -0.04624178 -0.057236783
an 0.527587 -0.15365727 0.22666325 -0.31374702 -0.5669861 0.3925684 0.10209287 0.45934406 0.11409188 0.025314221 0.27879226 0.010613728 -0.28190127 0.7696358 0.6707543 0.51636225 1.1183965 -0.20092951 -0.2178486 0.32410163 0.2599763 0.010142967 0.30855882 -0.12452402 0.32327485 0.4084726 0.65480226 0.22322355 0.67705315 0.42607498 -0.36270064 0.6304 -0.4994907 0.21391927 0.35165784 -0.21332279 -0.18942226 -0.24971884 0.5081736 -0.14741814 1.0985823 0.07382711 -0.45257482 0.012158243 0.6716284 -0.069956996 0.638846 0.35541436 -0.10302185 -0.69705755 0.05067778 -0.029144712 0.48498613 -0.43198875 0.33627626 -0.63843143 0.2500049 0.35096574 0.5013247 -0.16878714 -0.13520002 -0.32890326 -0.36791685 0.73623747 -0.11747557 0.5602735 -0.19623333 0.005440046 -0.23946632 0.24279918 -0.023806032 0.12346179 -0.80595523 0.039482336 -0.011791313 0.56061786 -0.20153478 -0.41554108 -0.041322965 0.81386024 -0.912197 0.09349504 -0.46494162 0.44041502 0.12915123 -0.3816119 0.2701438 0.30123025 0.3496324 -0.47896004 -0.6998788 0.11150454 0.38817888 0.3223926 0.43116218 0.25861454 -0.5572654 -0.9002841 0.63123316 -0.028428957 0.73406214 -0.37876466 0.021419972 -0.7216764 -0.07290786 0.12751046 0.23591788 -0.7720719 0.21365528 -0.3280681 0.03598089 0.16235861 -0.13898519 0.28007808 -0.24812606 0.41005185 -0.13897352 -0.1482571 -0.074311174 -0.3071945 0.16996057 0.4376315 0.12247429 -0.76852393 -0.27251783 -0.3581573 0.2400842 -0.3456554 -0.23709382 0.5675807 0.41883165 0.15701333 -0.0817105 -0.45817554 -0.65604514 1.0067934 0.035006445 -0.5164597 0.4479997 0.05427636 0.8720751 -0.18951622 -0.3340989 -0.54631394 -0.19734314 0.035380643 -0.3787977 0.6321357 -0.047579397 -0.06389441
who 0.44345075 -0.13387227 0.18993613 -0.2611583 -0.46871197 0.32949445 0.083068274 0.38490626 0.095404096 0.02102459 0.23358496 0.01279443 -0.23404852 0.6430074 0.5631044 0.43293634 0.93204087 -0.17386076 -0.17771533 0.2698859 0.21499789 0.010784051 0.25657606 -0.10651404 0.27116758 0.3411515 0.5487187 0.18503754 0.5700074 0.35524312 -0.29916164 0.5306167 -0.41518605 0.18280005 0.2931331 -0.1773752 -0.16345592 -0.20686056 0.42134863 -0.12186106 0.9204864 0.058161955 -0.3801649 0.007225488 0.56138486 -0.055509366 0.5290553 0.29732603 -0.08656568 -0.58250225 0.04238251 -0.022132222 0.4078427 -0.35664946 0.2827168 -0.53324205 0.21215004 0.29267496 0.42021245 -0.14553376 -0.10876808 -0.27358693 -0.3109854 0.6118205 -0.099936925 0.46858084 -0.16203178 0.003333818 -0.19756879 0.20592885 -0.019649323 0.09879839 -0.6769015 0.030013857 -0.00748521 0.46980193 -0.16415766 -0.35070068 -0.030424595 0.68312204 -0.75901264 0.08007944 -0.38799465 0.36581326 0.10829174 -0.3159188 0.22515942 0.25271502 0.2916947 -0.4042834 -0.58916885 0.09014885 0.32416478 0.2661458 0.35689706 0.21624433 -0.46888223 -0.7483744 0.5255606 -0.023733899 0.61204565 -0.31237078 0.014140104 -0.607308 -0.059084754 0.10822703 0.19341265 -0.64740366 0.17714567 -0.27403358 0.03152965 0.13892871 -0.11582764 0.24098334 -0.20790568 0.34648418 -0.11728943 -0.12996326 -0.06416941 -0.25667614 0.14254433 0.36813304 0.10522685 -0.64192986 -0.22503524 -0.30356044 0.20038068 -0.28330877 -0.20389009 0.47533306 0.3525751 0.13391475 -0.06733265 -0.37810022 -0.55267274 0.8411439 0.026630366 -0.43236622 0.3716088 0.048115887 0.73015493 -0.15998013 -0.27606487 -0.45149204 -0.16127947 0.03191433 -0.31531748 0.52272785 -0.04327881 -0.057535652
back 0.39978722 -0.12239894 0.17204203 -0.24136978 -0.4281308 0.29939514 0.076114535 0.3511337 0.083492234 0.019633206 0.2119318 0.010111731 -0.21327746 0.5877435 0.51320124 0.3910579 0.84602016 -0.15388513 -0.16501942 0.24162439 0.19801037 0.009151234 0.2293543 -0.09093506 0.24833865 0.3078298 0.4915919 0.17043279 0.51698303 0.31960836 -0.27177075 0.47836488 -0.3753556 0.16076432 0.26345044 -0.15623793 -0.14347309 -0.18979916 0.38059786 -0.11321507 0.8285044 0.053086586 -0.33867788 0.011958208 0.50862324 -0.052482087 0.47979823 0.2653425 -0.079112396 -0.5295225 0.033251777 -0.019315304 0.37233576 -0.32890904 0.25960174 -0.4860146 0.1869486 0.26396203 0.37952873 -0.12794876 -0.09932709 -0.2434703 -0.280154 0.55529624 -0.090207875 0.42688292 -0.14451793 0.002220549 -0.17956483 0.18158013 -0.018613623 0.09456584 -0.6142431 0.028867511 -0.004782625 0.42602652 -0.15312223 -0.31294596 -0.033102356 0.61335707 -0.69364053 0.06810653 -0.35289928 0.33206767 0.095664345 -0.29089406 0.20078051 0.2334058 0.26934046 -0.36714137 -0.5327576 0.08571399 0.29305848 0.23864692 0.32649004 0.19231442 -0.41915926 -0.6805642 0.47792357 -0.020225652 0.5557353 -0.28659084 0.015640913 -0.54980075 -0.04962774 0.09778743 0.1767324 -0.5852513 0.15812396 -0.25039956 0.02801584 0.121151865 -0.103804804 0.21280453 -0.19114698 0.31439242 -0.11001382 -0.11206115 -0.05435364 -0.23099308 0.13317522 0.33374128 0.09527025 -0.58118075 -0.20183755 -0.27467212 0.18166897 -0.2620165 -0.18218239 0.42811534 0.32106513 0.12024463 -0.05922976 -0.34774095 -0.49852335 0.75876266 0.024924656 -0.39151046 0.3390249 0.046337504 0.66124976 -0.14155692 -0.25368288 -0.41251236 -0.15199642 0.027677799 -0.28716382 0.4780594 -0.040348414 -0.051626045
